{"learner":{"attributes":{"scikit_learn":"{\"_estimator_type\": \"regressor\"}"},"feature_names":["pm25_lag_1","pm25_lag_2","pm25_lag_3","temperature_2m_mean","precipitation_sum","wind_speed_10m_max","wind_direction_10m_dominant"],"feature_types":["float","float","float","float","float","float","float"],"gradient_booster":{"model":{"gbtree_model_param":{"num_parallel_tree":"1","num_trees":"500"},"iteration_indptr":[0,1,2,3,4,5,6,7,8,9,10,11,12,13,14,15,16,17,18,19,20,21,22,23,24,25,26,27,28,29,30,31,32,33,34,35,36,37,38,39,40,41,42,43,44,45,46,47,48,49,50,51,52,53,54,55,56,57,58,59,60,61,62,63,64,65,66,67,68,69,70,71,72,73,74,75,76,77,78,79,80,81,82,83,84,85,86,87,88,89,90,91,92,93,94,95,96,97,98,99,100,101,102,103,104,105,106,107,108,109,110,111,112,113,114,115,116,117,118,119,120,121,122,123,124,125,126,127,128,129,130,131,132,133,134,135,136,137,138,139,140,141,142,143,144,145,146,147,148,149,150,151,152,153,154,155,156,157,158,159,160,161,162,163,164,165,166,167,168,169,170,171,172,173,174,175,176,177,178,179,180,181,182,183,184,185,186,187,188,189,190,191,192,193,194,195,196,197,198,199,200,201,202,203,204,205,206,207,208,209,210,211,212,213,214,215,216,217,218,219,220,221,222,223,224,225,226,227,228,229,230,231,232,233,234,235,236,237,238,239,240,241,242,243,244,245,246,247,248,249,250,251,252,253,254,255,256,257,258,259,260,261,262,263,264,265,266,267,268,269,270,271,272,273,274,275,276,277,278,279,280,281,282,283,284,285,286,287,288,289,290,291,292,293,294,295,296,297,298,299,300,301,302,303,304,305,306,307,308,309,310,311,312,313,314,315,316,317,318,319,320,321,322,323,324,325,326,327,328,329,330,331,332,333,334,335,336,337,338,339,340,341,342,343,344,345,346,347,348,349,350,351,352,353,354,355,356,357,358,359,360,361,362,363,364,365,366,367,368,369,370,371,372,373,374,375,376,377,378,379,380,381,382,383,384,385,386,387,388,389,390,391,392,393,394,395,396,397,398,399,400,401,402,403,404,405,406,407,408,409,410,411,412,413,414,415,416,417,418,419,420,421,422,423,424,425,426,427,428,429,430,431,432,433,434,435,436,437,438,439,440,441,442,443,444,445,446,447,448,449,450,451,452,453,454,455,456,457,458,459,460,461,462,463,464,465,466,467,468,469,470,471,472,473,474,475,476,477,478,479,480,481,482,483,484,485,486,487,488,489,490,491,492,493,494,495,496,497,498,499,500],"tree_info":[0,0,0,0,0,0,0,0,0,0,0,0,0,0,0,0,0,0,0,0,0,0,0,0,0,0,0,0,0,0,0,0,0,0,0,0,0,0,0,0,0,0,0,0,0,0,0,0,0,0,0,0,0,0,0,0,0,0,0,0,0,0,0,0,0,0,0,0,0,0,0,0,0,0,0,0,0,0,0,0,0,0,0,0,0,0,0,0,0,0,0,0,0,0,0,0,0,0,0,0,0,0,0,0,0,0,0,0,0,0,0,0,0,0,0,0,0,0,0,0,0,0,0,0,0,0,0,0,0,0,0,0,0,0,0,0,0,0,0,0,0,0,0,0,0,0,0,0,0,0,0,0,0,0,0,0,0,0,0,0,0,0,0,0,0,0,0,0,0,0,0,0,0,0,0,0,0,0,0,0,0,0,0,0,0,0,0,0,0,0,0,0,0,0,0,0,0,0,0,0,0,0,0,0,0,0,0,0,0,0,0,0,0,0,0,0,0,0,0,0,0,0,0,0,0,0,0,0,0,0,0,0,0,0,0,0,0,0,0,0,0,0,0,0,0,0,0,0,0,0,0,0,0,0,0,0,0,0,0,0,0,0,0,0,0,0,0,0,0,0,0,0,0,0,0,0,0,0,0,0,0,0,0,0,0,0,0,0,0,0,0,0,0,0,0,0,0,0,0,0,0,0,0,0,0,0,0,0,0,0,0,0,0,0,0,0,0,0,0,0,0,0,0,0,0,0,0,0,0,0,0,0,0,0,0,0,0,0,0,0,0,0,0,0,0,0,0,0,0,0,0,0,0,0,0,0,0,0,0,0,0,0,0,0,0,0,0,0,0,0,0,0,0,0,0,0,0,0,0,0,0,0,0,0,0,0,0,0,0,0,0,0,0,0,0,0,0,0,0,0,0,0,0,0,0,0,0,0,0,0,0,0,0,0,0,0,0,0,0,0,0,0,0,0,0,0,0,0,0,0,0,0,0,0,0,0,0,0,0,0,0,0,0,0,0,0,0,0,0,0,0,0,0,0,0,0,0,0,0,0,0,0,0,0,0,0,0,0,0,0,0,0,0,0,0,0,0,0,0,0,0,0,0,0,0,0,0,0,0,0,0,0,0,0,0,0,0,0,0,0],"trees":[{"base_weights":[4.1328864E-3,-1.003252E-1,4.5042872E-1,-1.8361418E-1,-2.6121266E-2,3.1935552E-1,8.520486E-1,-2.4271709E-1,-1.609686E-1,-6.059907E-2,5.8256876E-2,2.9102847E-1,4.18696E-2,9.219312E-1,1.5119599E-2,-1.0199822E-2,-1.29338745E-2,-5.233466E-2,-1.6688125E-1,-4.2407822E-2,-1.5939477E-1,9.8267026E-2,-5.550447E-2,4.5358333E-1,2.7391616E-1,7.404523E-1,1.3015833E0,-5.9127E-4,-4.0619215E-3,-7.426047E-3,-1.0037809E-2,-1.3545443E-3,-5.3481916E-3,-5.249369E-3,-1.0563658E-2,7.984153E-3,3.399884E-3,1.960905E-3,-4.67284E-3,5.1148147E-3,3.3536267E-2,1.853512E-2,1.1862048E-2,4.127336E-2,1.0914815E-2,2.7357638E-2,7.73373E-2],"categories":[],"categories_nodes":[],"categories_segments":[],"categories_sizes":[],"default_left":[0,0,0,0,0,0,0,0,0,0,0,0,0,0,0,0,0,0,0,0,0,0,0,0,0,0,0,0,0,0,0,0,0,0,0,0,0,0,0,0,0,0,0,0,0,0,0],"id":0,"left_children":[1,3,5,7,9,11,13,15,17,19,21,23,-1,25,-1,-1,-1,27,29,31,33,35,37,39,41,43,45,-1,-1,-1,-1,-1,-1,-1,-1,-1,-1,-1,-1,-1,-1,-1,-1,-1,-1,-1,-1],"loss_changes":[4.055728E1,4.352365E0,8.413757E0,4.0528488E-1,1.0915611E0,1.6052761E0,1.2576714E0,2.8500557E-3,1.473484E-1,4.7130018E-1,5.0157964E-1,2.123394E-1,0E0,1.4477005E0,0E0,0E0,0E0,1.5431505E-2,1.1323261E-1,2.2057113E-1,9.3544245E-2,1.3972276E-1,1.0791851E-1,6.9417906E-1,3.096161E-1,9.739704E-1,1.0032749E0,0E0,0E0,0E0,0E0,0E0,0E0,0E0,0E0,0E0,0E0,0E0,0E0,0E0,0E0,0E0,0E0,0E0,0E0,0E0,0E0],"parents":[2147483647,0,0,1,1,2,2,3,3,4,4,5,5,6,6,7,7,8,8,9,9,10,10,11,11,13,13,17,17,18,18,19,19,20,20,21,21,22,22,23,23,24,24,25,25,26,26],"right_children":[2,4,6,8,10,12,14,16,18,20,22,24,-1,26,-1,-1,-1,28,30,32,34,36,38,40,42,44,46,-1,-1,-1,-1,-1,-1,-1,-1,-1,-1,-1,-1,-1,-1,-1,-1,-1,-1,-1,-1],"split_conditions":[6E-1,3E-1,1.08E0,2E-1,4.3E-1,1.27E0,2.4458813E1,1.7709658E1,7.731622E0,2.31774E1,2.4855217E2,3.5E-1,4.18696E-2,1.9592731E1,1.5119599E-2,-1.0199822E-2,-1.29338745E-2,6.2890144E1,2.7217468E2,2.8294318E2,2.4261421E2,1.1556504E1,1.24811535E1,3E-1,1.0581348E2,1.8272438E1,1.4E0,-5.9127E-4,-4.0619215E-3,-7.426047E-3,-1.0037809E-2,-1.3545443E-3,-5.3481916E-3,-5.249369E-3,-1.0563658E-2,7.984153E-3,3.399884E-3,1.960905E-3,-4.67284E-3,5.1148147E-3,3.3536267E-2,1.853512E-2,1.1862048E-2,4.127336E-2,1.0914815E-2,2.7357638E-2,7.73373E-2],"split_indices":[0,0,0,0,0,1,5,5,5,5,6,1,0,5,0,0,0,6,6,6,6,5,5,1,6,5,0,0,0,0,0,0,0,0,0,0,0,0,0,0,0,0,0,0,0,0,0],"split_type":[0,0,0,0,0,0,0,0,0,0,0,0,0,0,0,0,0,0,0,0,0,0,0,0,0,0,0,0,0,0,0,0,0,0,0,0,0,0,0,0,0,0,0,0,0,0,0],"sum_hessian":[8.68E2,7.04E2,1.64E2,3.31E2,3.73E2,1.25E2,3.9E1,8.9E1,2.42E2,2.65E2,1.08E2,1.2E2,5E0,3.4E1,5E0,3E1,5.9E1,1.3E1,2.29E2,2.25E2,4E1,8E1,2.8E1,9E0,1.11E2,2.5E1,9E0,6E0,7E0,1.52E2,7.7E1,1.83E2,4.2E1,2.1E1,1.9E1,2.5E1,5.5E1,8E0,2E1,4E0,5E0,2.8E1,8.3E1,2.1E1,4E0,3E0,6E0],"tree_param":{"num_deleted":"0","num_feature":"7","num_nodes":"47","size_leaf_vector":"1"}},{"base_weights":[-2.405598E-3,-7.376881E-2,2.975098E-1,-1.6305825E-1,-1.4927027E-2,2.337902E-1,7.172426E-1,-1.2905347E-1,-2.0086645E-1,-8.223769E-2,3.137553E-2,1.8913782E-1,3.7137762E-1,6.423664E-2,5.0814295E-1,-1.4865933E-1,-8.720802E-2,-2.117018E-1,-1.1830228E-1,-2.6471203E-2,-1.1349033E-1,5.2432135E-2,-1.5686212E-1,1.6756245E-1,2.6759187E-2,3.9682698E-2,2.71204E-1,6.285525E-1,4.67248E-3,-3.7584107E-3,-8.051761E-3,-5.6595705E-3,-3.2734824E-4,-8.8072065E-3,-1.1287968E-2,-9.035303E-3,6.4843283E-3,-5.0810287E-3,-2.2298636E-4,-6.0862945E-3,-2.4749874E-3,1.9639174E-3,3.0772543E-2,-9.585834E-3,-7.2682876E-4,1.0693573E-2,9.314247E-4,1.7005285E-2,6.376851E-3,7.5012594E-3,4.544395E-2],"categories":[],"categories_nodes":[],"categories_segments":[],"categories_sizes":[],"default_left":[0,0,0,0,0,0,0,0,0,0,0,0,0,0,0,0,0,0,0,0,0,0,0,0,0,0,0,0,0,0,0,0,0,0,0,0,0,0,0,0,0,0,0,0,0,0,0,0,0,0,0],"id":1,"left_children":[1,3,5,7,9,11,13,15,17,19,21,23,25,-1,27,29,31,33,35,37,39,41,43,45,-1,-1,47,49,-1,-1,-1,-1,-1,-1,-1,-1,-1,-1,-1,-1,-1,-1,-1,-1,-1,-1,-1,-1,-1,-1,-1],"loss_changes":[1.8150223E1,3.596522E0,4.191783E0,3.2377625E-1,1.2928758E0,8.082943E-1,1.8390741E0,1.0681653E-1,8.857107E-2,2.915374E-1,9.832815E-1,7.31591E-1,1.2229905E0,0E0,7.9012346E-1,7.7028036E-2,1.0195547E-1,1.5717506E-2,2.8651762E-1,1.0210401E-1,5.0890565E-2,1.6199199E0,1.2123042E-1,7.2019887E-1,0E0,0E0,2.436924E-1,1.6075153E0,0E0,0E0,0E0,0E0,0E0,0E0,0E0,0E0,0E0,0E0,0E0,0E0,0E0,0E0,0E0,0E0,0E0,0E0,0E0,0E0,0E0,0E0,0E0],"parents":[2147483647,0,0,1,1,2,2,3,3,4,4,5,5,6,6,7,7,8,8,9,9,10,10,11,11,12,12,14,14,15,15,16,16,17,17,18,18,19,19,20,20,21,21,22,22,23,23,26,26,27,27],"right_children":[2,4,6,8,10,12,14,16,18,20,22,24,26,-1,28,30,32,34,36,38,40,42,44,46,-1,-1,48,50,-1,-1,-1,-1,-1,-1,-1,-1,-1,-1,-1,-1,-1,-1,-1,-1,-1,-1,-1,-1,-1,-1,-1],"split_conditions":[6E-1,2.5E-1,1.27E0,1.6992609E1,1.8527334E1,8.8E-1,1.5E0,1.9316917E1,2.2185663E1,1.2218805E1,2.2657131E1,1.12E0,7E-1,6.423664E-2,5E-1,8.161764E0,1.4913952E1,1.99954E1,5E-1,1.2027333E1,5E-1,2.2199188E1,4.2E-1,2.0247398E1,2.6759187E-2,3.9682698E-2,1.4192631E1,9.5E-1,4.67248E-3,-3.7584107E-3,-8.051761E-3,-5.6595705E-3,-3.2734824E-4,-8.8072065E-3,-1.1287968E-2,-9.035303E-3,6.4843283E-3,-5.0810287E-3,-2.2298636E-4,-6.0862945E-3,-2.4749874E-3,1.9639174E-3,3.0772543E-2,-9.585834E-3,-7.2682876E-4,1.0693573E-2,9.314247E-4,1.7005285E-2,6.376851E-3,7.5012594E-3,4.544395E-2],"split_indices":[1,1,1,5,3,2,1,3,3,5,5,1,1,0,4,5,5,5,4,3,1,5,2,5,0,0,5,2,0,0,0,0,0,0,0,0,0,0,0,0,0,0,0,0,0,0,0,0,0,0,0],"split_type":[0,0,0,0,0,0,0,0,0,0,0,0,0,0,0,0,0,0,0,0,0,0,0,0,0,0,0,0,0,0,0,0,0,0,0,0,0,0,0,0,0,0,0,0,0,0,0,0,0,0,0],"sum_hessian":[8.46E2,6.84E2,1.62E2,2.71E2,4.13E2,1.42E2,2E1,1.45E2,1.26E2,1.68E2,2.45E2,1.09E2,3.3E1,4E0,1.6E1,9.7E1,4.8E1,1.1E2,1.6E1,6.1E1,1.07E2,2.21E2,2.4E1,1.04E2,5E0,5E0,2.8E1,1.2E1,4E0,1.5E1,8.2E1,3.6E1,1.2E1,3.5E1,7.5E1,1.3E1,3E0,1.3E1,4.8E1,9.4E1,1.3E1,2.17E2,4E0,1.9E1,5E0,7.9E1,2.5E1,1.8E1,1E1,5E0,7E0],"tree_param":{"num_deleted":"0","num_feature":"7","num_nodes":"51","size_leaf_vector":"1"}},{"base_weights":[1.1232825E-3,-9.2482746E-2,4.0402922E-1,-1.4402626E-1,2.2009315E-2,2.9379863E-1,9.6508044E-1,-1.7735445E-1,-8.88477E-2,5.9842903E-2,-4.991573E-2,2.1521488E-1,4.6455234E-1,2.721822E-1,5.7967044E-2,-2.1500735E-1,-1.5858203E-1,-5.4835193E-2,-1.3664107E-1,2.3335183E-2,1.12313814E-1,1.1050833E-2,-1.03537746E-1,2.4278341E-1,3.836961E-2,7.8667325E-1,3.2487482E-1,1.9791268E-2,4.024675E-3,-8.936229E-3,-1.1558786E-2,-4.0138457E-3,-8.290301E-3,-4.189294E-3,-6.2211644E-4,-1.6209669E-3,-7.3446515E-3,4.9895816E-4,6.750528E-3,3.1382497E-3,7.823362E-3,-2.5317844E-4,7.061597E-3,-1.5797702E-3,-6.662089E-3,1.0792569E-2,3.569975E-2,8.207482E-3,-7.834769E-3,5.336299E-2,2.8727999E-2,2.203232E-2,8.600433E-3],"categories":[],"categories_nodes":[],"categories_segments":[],"categories_sizes":[],"default_left":[0,0,0,0,0,0,0,0,0,0,0,0,0,0,0,0,0,0,0,0,0,0,0,0,0,0,0,0,0,0,0,0,0,0,0,0,0,0,0,0,0,0,0,0,0,0,0,0,0,0,0,0,0],"id":2,"left_children":[1,3,5,7,9,11,13,15,17,19,21,23,25,27,-1,29,31,33,35,37,39,41,43,45,47,49,51,-1,-1,-1,-1,-1,-1,-1,-1,-1,-1,-1,-1,-1,-1,-1,-1,-1,-1,-1,-1,-1,-1,-1,-1,-1,-1],"loss_changes":[3.220777E1,4.0927873E0,9.673508E0,8.63286E-1,5.9076256E-1,1.7249327E0,3.1841164E0,1.758337E-1,2.8836155E-1,2.6939332E-1,2.463304E-1,4.5384407E-1,1.6341381E0,1.340456E-1,0E0,1.49998665E-2,1.0095596E-1,1.3150617E-1,7.537353E-2,1.2543347E-1,1.1706883E-1,7.623561E-2,8.1269294E-2,8.8651943E-1,3.6921543E-1,1.0098839E-1,4.7282958E-1,0E0,0E0,0E0,0E0,0E0,0E0,0E0,0E0,0E0,0E0,0E0,0E0,0E0,0E0,0E0,0E0,0E0,0E0,0E0,0E0,0E0,0E0,0E0,0E0,0E0,0E0],"parents":[2147483647,0,0,1,1,2,2,3,3,4,4,5,5,6,6,7,7,8,8,9,9,10,10,11,11,12,12,13,13,15,15,16,16,17,17,18,18,19,19,20,20,21,21,22,22,23,23,24,24,25,25,26,26],"right_children":[2,4,6,8,10,12,14,16,18,20,22,24,26,28,-1,30,32,34,36,38,40,42,44,46,48,50,52,-1,-1,-1,-1,-1,-1,-1,-1,-1,-1,-1,-1,-1,-1,-1,-1,-1,-1,-1,-1,-1,-1,-1,-1,-1,-1],"split_conditions":[6E-1,3.7E-1,1.27E0,2.8E-1,2.2590108E2,8.5E-1,1.8275251E1,2E-1,2.3203612E2,4.7E-1,1.787718E1,2.794147E2,7E-1,9.5E-1,5.7967044E-2,1.7309973E1,9.220499E0,2.2127333E1,8.587338E0,2.655858E1,1.25900185E2,3.3080243E2,2.6776303E2,2.688044E2,2.2910667E1,2.1010666E1,1.699921E2,1.9791268E-2,4.024675E-3,-8.936229E-3,-1.1558786E-2,-4.0138457E-3,-8.290301E-3,-4.189294E-3,-6.2211644E-4,-1.6209669E-3,-7.3446515E-3,4.9895816E-4,6.750528E-3,3.1382497E-3,7.823362E-3,-2.5317844E-4,7.061597E-3,-1.5797702E-3,-6.662089E-3,1.0792569E-2,3.569975E-2,8.207482E-3,-7.834769E-3,5.336299E-2,2.8727999E-2,2.203232E-2,8.600433E-3],"split_indices":[0,0,0,0,6,0,3,0,6,0,5,6,1,1,0,5,5,3,5,3,6,6,6,6,3,3,6,0,0,0,0,0,0,0,0,0,0,0,0,0,0,0,0,0,0,0,0,0,0,0,0,0,0],"split_type":[0,0,0,0,0,0,0,0,0,0,0,0,0,0,0,0,0,0,0,0,0,0,0,0,0,0,0,0,0,0,0,0,0,0,0,0,0,0,0,0,0,0,0,0,0,0,0,0,0,0,0,0,0],"sum_hessian":[8.52E2,6.92E2,1.6E2,4.77E2,2.15E2,1.35E2,2.5E1,2.96E2,1.81E2,1.41E2,7.4E1,9.4E1,4.1E1,6E0,1.9E1,9.5E1,2.01E2,1.07E2,7.4E1,8.4E1,5.7E1,3.5E1,3.9E1,8.1E1,1.3E1,1.1E1,3E1,3E0,3E0,3.3E1,6.2E1,1.8E1,1.83E2,6.3E1,4.4E1,7E0,6.7E1,7.6E1,8E0,2.8E1,2.9E1,3.2E1,3E0,1.2E1,2.7E1,7.8E1,3E0,8E0,5E0,3E0,8E0,1.6E1,1.4E1],"tree_param":{"num_deleted":"0","num_feature":"7","num_nodes":"53","size_leaf_vector":"1"}},{"base_weights":[7.3527684E-3,-8.597193E-2,3.748102E-1,-1.3203274E-1,2.2208488E-2,2.8220406E-1,9.01784E-1,-1.647697E-1,-7.6872185E-2,5.4600872E-2,-6.948293E-2,2.1799183E-1,4.3990502E-1,1.0185361E0,2.5067554E-4,-7.163913E-2,-1.7208546E-1,-4.657401E-2,-1.3573998E-1,2.002076E-2,1.12087935E-1,3.3335317E-2,-1.12519525E-1,2.410292E-1,5.601982E-2,2.4035029E-1,5.0939876E-1,2.3735266E-2,1.1825526E0,-1.8852213E-3,-5.12159E-3,-7.5572417E-3,-9.84893E-3,-3.5796892E-3,2.9807815E-3,-4.316431E-3,-8.694631E-3,3.7723425E-4,5.440196E-3,8.212794E-3,4.0154303E-3,5.022586E-3,-6.2028004E-4,-3.987181E-3,-7.51223E-3,1.0962325E-2,3.4361005E-2,7.4348957E-3,-5.3890147E-3,4.967763E-3,2.6637515E-2,2.9962081E-2,1.3040236E-2,2.9774541E-2,6.329083E-2],"categories":[],"categories_nodes":[],"categories_segments":[],"categories_sizes":[],"default_left":[0,0,0,0,0,0,0,0,0,0,0,0,0,0,0,0,0,0,0,0,0,0,0,0,0,0,0,0,0,0,0,0,0,0,0,0,0,0,0,0,0,0,0,0,0,0,0,0,0,0,0,0,0,0,0],"id":3,"left_children":[1,3,5,7,9,11,13,15,17,19,21,23,25,27,-1,29,31,33,35,37,39,41,43,45,47,49,51,-1,53,-1,-1,-1,-1,-1,-1,-1,-1,-1,-1,-1,-1,-1,-1,-1,-1,-1,-1,-1,-1,-1,-1,-1,-1,-1,-1],"loss_changes":[2.9969883E1,3.475998E0,8.383293E0,8.703642E-1,6.245454E-1,1.4433069E0,2.7170887E0,1.961565E-1,3.2185793E-1,3.058818E-1,2.4712297E-1,3.9695263E-1,4.7388077E-1,1.4901714E0,0E0,2.1216422E-2,1.1775017E-1,3.3105958E-1,1.0186887E-1,1.0773033E-1,8.29649E-2,5.3435575E-2,3.6241382E-2,7.8237724E-1,2.4373692E-1,4.8301888E-1,5.3608036E-1,0E0,7.719803E-2,0E0,0E0,0E0,0E0,0E0,0E0,0E0,0E0,0E0,0E0,0E0,0E0,0E0,0E0,0E0,0E0,0E0,0E0,0E0,0E0,0E0,0E0,0E0,0E0,0E0,0E0],"parents":[2147483647,0,0,1,1,2,2,3,3,4,4,5,5,6,6,7,7,8,8,9,9,10,10,11,11,12,12,13,13,15,15,16,16,17,17,18,18,19,19,20,20,21,21,22,22,23,23,24,24,25,25,26,26,28,28],"right_children":[2,4,6,8,10,12,14,16,18,20,22,24,26,28,-1,30,32,34,36,38,40,42,44,46,48,50,52,-1,54,-1,-1,-1,-1,-1,-1,-1,-1,-1,-1,-1,-1,-1,-1,-1,-1,-1,-1,-1,-1,-1,-1,-1,-1,-1,-1],"split_conditions":[6E-1,3.7E-1,1.27E0,2.8E-1,2.6776303E2,8.5E-1,2.4458813E1,9.220499E0,2.4959767E2,4.7E-1,1.2620554E1,2.794147E2,1.07714615E1,1.98815E1,2.5067554E-4,7.92E0,2.6220718E2,2.4352331E1,1.6610792E1,2.655858E1,1.1556504E1,1.45773325E1,1.995972E1,2.688044E2,2.2910667E1,1.6552972E2,1.8272438E1,2.3735266E-2,1.48E0,-1.8852213E-3,-5.12159E-3,-7.5572417E-3,-9.84893E-3,-3.5796892E-3,2.9807815E-3,-4.316431E-3,-8.694631E-3,3.7723425E-4,5.440196E-3,8.212794E-3,4.0154303E-3,5.022586E-3,-6.2028004E-4,-3.987181E-3,-7.51223E-3,1.0962325E-2,3.4361005E-2,7.4348957E-3,-5.3890147E-3,4.967763E-3,2.6637515E-2,2.9962081E-2,1.3040236E-2,2.9774541E-2,6.329083E-2],"split_indices":[0,0,0,0,6,0,5,5,6,0,5,6,5,3,0,5,6,3,5,3,5,3,5,6,3,6,5,0,0,0,0,0,0,0,0,0,0,0,0,0,0,0,0,0,0,0,0,0,0,0,0,0,0,0,0],"split_type":[0,0,0,0,0,0,0,0,0,0,0,0,0,0,0,0,0,0,0,0,0,0,0,0,0,0,0,0,0,0,0,0,0,0,0,0,0,0,0,0,0,0,0,0,0,0,0,0,0,0,0,0,0,0,0],"sum_hessian":[8.72E2,6.96E2,1.76E2,4.88E2,2.08E2,1.51E2,2.5E1,3.05E2,1.83E2,1.54E2,5.4E1,1.09E2,4.2E1,2.2E1,3E0,2.3E1,2.82E2,1.22E2,6.1E1,9.7E1,5.7E1,1.6E1,3.8E1,9.5E1,1.4E1,1.2E1,3E1,6E0,1.6E1,1.2E1,1.1E1,1.57E2,1.25E2,9.9E1,2.3E1,2.8E1,3.3E1,8.6E1,1.1E1,2E1,3.7E1,6E0,1E1,2.2E1,1.6E1,9.2E1,3E0,9E0,5E0,9E0,3E0,2.1E1,9E0,3E0,1.3E1],"tree_param":{"num_deleted":"0","num_feature":"7","num_nodes":"55","size_leaf_vector":"1"}},{"base_weights":[5.7125892E-3,-8.5596055E-2,3.575023E-1,-1.6123646E-1,-2.6476054E-2,2.6540512E-1,8.8216656E-1,-2.0331042E-1,-1.4155476E-1,-5.3828962E-2,4.5768645E-2,2.177821E-1,4.3718582E-1,4.7028458E-1,1.1102E0,-2.0890203E-1,-1.1778669E-1,-1.2852164E-1,-1.7699966E-1,-2.9379765E-2,-9.1124736E-2,8.556705E-2,-5.7906214E-2,2.33989E-1,-9.902682E-3,6.8014336E-1,2.5740412E-1,4.0867846E-2,1.5519223E-1,2.3084324E-2,6.1217137E-2,-1.0636988E-2,-6.113798E-3,-2.8113693E-3,-7.17384E-3,-6.559582E-3,-2.0175606E-3,-9.642099E-3,-3.9060717E-3,-3.009807E-3,3.869749E-4,-6.1538047E-3,-2.7219886E-3,2.6266868E-3,7.0749572E-3,-3.3417356E-4,-6.2187845E-3,1.2484134E-2,-1.966356E-3,4.26972E-3,-7.5186314E-3,2.1275414E-2,4.1880757E-2,1.6621726E-2,5.165213E-3,1.3338044E-2,2.4127513E-4],"categories":[],"categories_nodes":[],"categories_segments":[],"categories_sizes":[],"default_left":[0,0,0,0,0,0,0,0,0,0,0,0,0,0,0,0,0,0,0,0,0,0,0,0,0,0,0,0,0,0,0,0,0,0,0,0,0,0,0,0,0,0,0,0,0,0,0,0,0,0,0,0,0,0,0,0,0],"id":4,"left_children":[1,3,5,7,9,11,13,15,17,19,21,23,25,27,29,31,33,35,37,39,41,43,45,47,49,51,53,-1,55,-1,-1,-1,-1,-1,-1,-1,-1,-1,-1,-1,-1,-1,-1,-1,-1,-1,-1,-1,-1,-1,-1,-1,-1,-1,-1,-1,-1],"loss_changes":[2.7590797E1,3.0455408E0,8.318525E0,2.1881866E-1,7.612871E-1,1.1482582E0,1.9198875E0,1.9868135E-2,7.287693E-2,2.5172937E-1,4.4232088E-1,4.4881487E-1,1.2226663E0,1.0761111E0,6.191044E-1,2.5775433E-3,4.5843944E-3,3.1195879E-2,6.795716E-2,1.9492568E-1,1.2223452E-1,1.348334E-1,1.0131121E-1,4.9451447E-1,1.3331836E-1,1.6485977E-1,1.9690156E-1,0E0,1.1614625E-1,0E0,0E0,0E0,0E0,0E0,0E0,0E0,0E0,0E0,0E0,0E0,0E0,0E0,0E0,0E0,0E0,0E0,0E0,0E0,0E0,0E0,0E0,0E0,0E0,0E0,0E0,0E0,0E0],"parents":[2147483647,0,0,1,1,2,2,3,3,4,4,5,5,6,6,7,7,8,8,9,9,10,10,11,11,12,12,13,13,14,14,15,15,16,16,17,17,18,18,19,19,20,20,21,21,22,22,23,23,24,24,25,25,26,26,28,28],"right_children":[2,4,6,8,10,12,14,16,18,20,22,24,26,28,30,32,34,36,38,40,42,44,46,48,50,52,54,-1,56,-1,-1,-1,-1,-1,-1,-1,-1,-1,-1,-1,-1,-1,-1,-1,-1,-1,-1,-1,-1,-1,-1,-1,-1,-1,-1,-1,-1],"split_conditions":[6E-1,2.8E-1,1.27E0,2E-1,4.3E-1,8.8E-1,2.0598167E1,2.2573166E1,2.8958878E2,2.2803651E2,2.227095E2,3.040863E2,2.1010666E1,9.045471E1,4.4E-1,3.3080243E2,2.4674834E2,8.599999E0,3.3387234E2,2.1981499E1,3.2E-1,5.1E-1,2.8602078E2,7E-1,1.8737751E1,8E-1,1.14E0,4.0867846E-2,2.4855217E2,2.3084324E-2,6.1217137E-2,-1.0636988E-2,-6.113798E-3,-2.8113693E-3,-7.17384E-3,-6.559582E-3,-2.0175606E-3,-9.642099E-3,-3.9060717E-3,-3.009807E-3,3.869749E-4,-6.1538047E-3,-2.7219886E-3,2.6266868E-3,7.0749572E-3,-3.3417356E-4,-6.2187845E-3,1.2484134E-2,-1.966356E-3,4.26972E-3,-7.5186314E-3,2.1275414E-2,4.1880757E-2,1.6621726E-2,5.165213E-3,1.3338044E-2,2.4127513E-4],"split_indices":[0,0,0,0,0,2,3,3,6,6,6,6,3,6,2,6,6,4,6,3,0,0,6,4,3,0,2,0,6,0,0,0,0,0,0,0,0,0,0,0,0,0,0,0,0,0,0,0,0,0,0,0,0,0,0,0,0],"split_type":[0,0,0,0,0,0,0,0,0,0,0,0,0,0,0,0,0,0,0,0,0,0,0,0,0,0,0,0,0,0,0,0,0,0,0,0,0,0,0,0,0,0,0,0,0,0,0,0,0,0,0,0,0,0,0,0,0],"sum_hessian":[8.57E2,6.81E2,1.76E2,2.98E2,3.83E2,1.51E2,2.5E1,9.2E1,2.06E2,2.78E2,1.05E2,1.2E2,3.1E1,1E1,1.5E1,8.5E1,7E0,1.54E2,5.2E1,1.69E2,1.09E2,7.6E1,2.9E1,1.12E2,8E0,1.2E1,1.9E1,4E0,6E0,3E0,1.2E1,8E1,5E0,3E0,4E0,1.49E2,5E0,4.4E1,8E0,9.2E1,7.7E1,5.7E1,5.2E1,4.9E1,2.7E1,1.7E1,1.2E1,1.06E2,6E0,5E0,3E0,6E0,6E0,1.2E1,7E0,3E0,3E0],"tree_param":{"num_deleted":"0","num_feature":"7","num_nodes":"57","size_leaf_vector":"1"}},{"base_weights":[6.1251237E-3,-4.5261122E-2,2.5719175E-1,-1.1652973E-1,1.1251502E-3,2.0255105E-1,5.0999534E-1,-9.822264E-2,-9.719028E-3,-7.219997E-2,4.7149953E-2,-3.920262E-2,2.462541E-1,6.4267826E-1,5.8044698E-2,-1.22264236E-1,-4.4983175E-2,-7.9026595E-2,8.580734E-3,2.4369305E-2,3.715528E-2,1.2039758E-1,-1.8072984E-1,2.7502352E-1,-2.7211126E-2,2.8292406E-1,9.1130227E-1,6.130338E-5,5.017608E-3,-4.740573E-3,-7.213606E-3,-7.223627E-4,-8.308185E-3,-2.057834E-3,-5.4931543E-3,2.4627696E-3,-6.715521E-3,-2.9531962E-3,2.0217791E-2,-4.2889677E-3,-1.0280693E-2,2.0443154E-2,1.0695021E-2,6.8283565E-3,-7.0154145E-3,1.5282065E-4,2.3449654E-2,5.187742E-2,2.1549216E-2],"categories":[],"categories_nodes":[],"categories_segments":[],"categories_sizes":[],"default_left":[0,0,0,0,0,0,0,0,0,0,0,0,0,0,0,0,0,0,0,0,0,0,0,0,0,0,0,0,0,0,0,0,0,0,0,0,0,0,0,0,0,0,0,0,0,0,0,0,0],"id":5,"left_children":[1,3,5,7,9,11,13,15,-1,17,19,21,23,25,27,29,31,33,-1,-1,35,37,39,41,43,45,47,-1,-1,-1,-1,-1,-1,-1,-1,-1,-1,-1,-1,-1,-1,-1,-1,-1,-1,-1,-1,-1,-1],"loss_changes":[1.1390649E1,2.423345E0,1.9687042E0,3.92797E-1,1.5051787E0,1.3303256E0,1.5218153E0,2.9657102E-1,0E0,2.9984438E-1,1.1874952E0,4.735149E-1,8.414316E-1,1.674943E0,1.6703924E-2,8.4198475E-2,2.751263E-1,1.916647E-1,0E0,0E0,5.647242E-1,5.334786E-1,8.352816E-3,6.978903E-1,2.2291292E-1,5.193136E-1,2.1985435E-1,0E0,0E0,0E0,0E0,0E0,0E0,0E0,0E0,0E0,0E0,0E0,0E0,0E0,0E0,0E0,0E0,0E0,0E0,0E0,0E0,0E0,0E0],"parents":[2147483647,0,0,1,1,2,2,3,3,4,4,5,5,6,6,7,7,9,9,10,10,11,11,12,12,13,13,14,14,15,15,16,16,17,17,20,20,21,21,22,22,23,23,24,24,25,25,26,26],"right_children":[2,4,6,8,10,12,14,16,-1,18,20,22,24,26,28,30,32,34,-1,-1,36,38,40,42,44,46,48,-1,-1,-1,-1,-1,-1,-1,-1,-1,-1,-1,-1,-1,-1,-1,-1,-1,-1,-1,-1,-1,-1],"split_conditions":[6.3E-1,2.5E-1,1.37E0,2.2657131E1,1.8198166E1,1.6327332E1,7E-1,1.9833584E1,-9.719028E-3,6E-1,5.572436E1,1.5158522E1,2.9291833E2,1.98815E1,1.3951413E2,1.3570615E1,2.6739417E2,1.4480773E1,8.580734E-3,2.4369305E-2,2.4313328E1,8.5E-1,7E-1,2.1771082E1,1.8737751E1,1.59E0,2.6220718E2,6.130338E-5,5.017608E-3,-4.740573E-3,-7.213606E-3,-7.223627E-4,-8.308185E-3,-2.057834E-3,-5.4931543E-3,2.4627696E-3,-6.715521E-3,-2.9531962E-3,2.0217791E-2,-4.2889677E-3,-1.0280693E-2,2.0443154E-2,1.0695021E-2,6.8283565E-3,-7.0154145E-3,1.5282065E-4,2.3449654E-2,5.187742E-2,2.1549216E-2],"split_indices":[2,2,2,5,3,3,4,3,0,2,6,5,6,3,6,5,6,5,0,0,5,2,2,3,3,2,6,0,0,0,0,0,0,0,0,0,0,0,0,0,0,0,0,0,0,0,0,0,0],"split_type":[0,0,0,0,0,0,0,0,0,0,0,0,0,0,0,0,0,0,0,0,0,0,0,0,0,0,0,0,0,0,0,0,0,0,0,0,0,0,0,0,0,0,0,0,0,0,0,0,0],"sum_hessian":[8.81E2,7.32E2,1.49E2,2.88E2,4.44E2,1.24E2,2.5E1,2.35E2,5.3E1,1.71E2,2.73E2,1.9E1,1.05E2,1.9E1,6E0,1.61E2,7.4E1,1.67E2,4E0,5E0,2.68E2,9E0,1E1,9.5E1,1E1,9E0,1E1,3E0,3E0,7.4E1,8.7E1,6E1,1.4E1,7.6E1,9.1E1,2.51E2,1.7E1,6E0,3E0,3E0,7E0,2.8E1,6.7E1,4E0,6E0,4E0,5E0,7E0,3E0],"tree_param":{"num_deleted":"0","num_feature":"7","num_nodes":"49","size_leaf_vector":"1"}},{"base_weights":[4.6918695E-3,-6.1571006E-2,2.3572005E-1,-1.3023487E-1,-1.3244138E-2,1.729065E-1,5.952094E-1,-1.11583196E-1,-1.6553617E-1,9.136918E-3,-1.2194534E-1,2.1277136E-1,1.4224037E-2,7.094568E-1,2.9029774E-3,-1.1931673E-3,-1.1391317E-1,-1.7423059E-1,-7.594938E-2,-5.076816E-2,3.8231038E-2,-2.282335E-2,-1.5259491E-1,-6.2375106E-3,2.2165664E-1,8.575082E-2,-1.07915446E-1,8.0386025E-1,3.003774E-3,-4.5103842E-4,-5.7829893E-3,-7.0965188E-3,-9.434053E-3,2.4015263E-3,-6.7972564E-3,2.5147086E-3,-3.2639955E-3,2.0721076E-2,1.4672965E-3,1.1263811E-3,-5.48607E-3,-8.46522E-3,-5.060259E-3,1.1835394E-2,1.0190603E-3,-8.3337305E-5,1.3665616E-2,-1.0453555E-2,-9.2796393E-4,2.1919569E-2,5.054868E-2],"categories":[],"categories_nodes":[],"categories_segments":[],"categories_sizes":[],"default_left":[0,0,0,0,0,0,0,0,0,0,0,0,0,0,0,0,0,0,0,0,0,0,0,0,0,0,0,0,0,0,0,0,0,0,0,0,0,0,0,0,0,0,0,0,0,0,0,0,0,0,0],"id":6,"left_children":[1,3,5,7,9,11,13,15,17,19,21,23,25,27,-1,-1,29,31,33,35,37,39,41,-1,43,45,47,49,-1,-1,-1,-1,-1,-1,-1,-1,-1,-1,-1,-1,-1,-1,-1,-1,-1,-1,-1,-1,-1,-1,-1],"loss_changes":[1.3118668E1,2.2082691E0,4.210018E0,1.625967E-1,9.5479053E-1,1.0344138E0,1.6771135E0,3.4683943E-2,5.9205294E-2,5.701216E-1,2.0006627E-1,4.2051744E-1,3.0628616E-1,1.3616953E0,0E0,0E0,3.1567335E-2,1.2427807E-2,8.091219E-2,1.6020846E-1,7.2318685E-1,6.9467254E-2,2.6659012E-2,0E0,3.829441E-1,3.6117125E-1,1.1362524E-1,1.0706663E0,0E0,0E0,0E0,0E0,0E0,0E0,0E0,0E0,0E0,0E0,0E0,0E0,0E0,0E0,0E0,0E0,0E0,0E0,0E0,0E0,0E0,0E0,0E0],"parents":[2147483647,0,0,1,1,2,2,3,3,4,4,5,5,6,6,7,7,8,8,9,9,10,10,11,11,12,12,13,13,16,16,17,17,18,18,19,19,20,20,21,21,22,22,24,24,25,25,26,26,27,27],"right_children":[2,4,6,8,10,12,14,16,18,20,22,24,26,28,-1,-1,30,32,34,36,38,40,42,-1,44,46,48,50,-1,-1,-1,-1,-1,-1,-1,-1,-1,-1,-1,-1,-1,-1,-1,-1,-1,-1,-1,-1,-1,-1,-1],"split_conditions":[5.5E-1,2.5E-1,1.27E0,1.99954E1,2.8602078E2,2.636728E2,2.290743E1,2.1317911E1,2.2185663E1,1.8527334E1,1.191812E1,6.8014725E1,2.0247398E1,8.000001E-1,2.9029774E-3,-1.1931673E-3,6.6818557E0,2.4261421E2,2.5932474E2,8.049845E0,5.572436E1,3.3670627E2,3.1492722E2,-6.2375106E-3,1.7000002E0,7.5E-1,2.0598167E1,1.98815E1,3.003774E-3,-4.5103842E-4,-5.7829893E-3,-7.0965188E-3,-9.434053E-3,2.4015263E-3,-6.7972564E-3,2.5147086E-3,-3.2639955E-3,2.0721076E-2,1.4672965E-3,1.1263811E-3,-5.48607E-3,-8.46522E-3,-5.060259E-3,1.1835394E-2,1.0190603E-3,-8.3337305E-5,1.3665616E-2,-1.0453555E-2,-9.2796393E-4,2.1919569E-2,5.054868E-2],"split_indices":[1,1,1,5,6,6,5,6,3,3,5,6,5,4,0,0,5,6,6,5,6,6,6,0,4,1,3,3,0,0,0,0,0,0,0,0,0,0,0,0,0,0,0,0,0,0,0,0,0,0,0],"split_type":[0,0,0,0,0,0,0,0,0,0,0,0,0,0,0,0,0,0,0,0,0,0,0,0,0,0,0,0,0,0,0,0,0,0,0,0,0,0,0,0,0,0,0,0,0,0,0,0,0,0,0],"sum_hessian":[8.55E2,6.65E2,1.9E2,2.74E2,3.91E2,1.63E2,2.7E1,1.82E2,9.2E1,3.25E2,6.6E1,1.3E2,3.3E1,2.2E1,5E0,5E0,1.77E2,8.3E1,9E0,1.06E2,2.19E2,1.6E1,5E1,3E0,1.27E2,2.1E1,1.2E1,1.9E1,3E0,3E0,1.74E2,2.9E1,5.4E1,3E0,6E0,1.3E1,9.3E1,4E0,2.15E2,1.1E1,5E0,3.6E1,1.4E1,1.18E2,9E0,1.5E1,6E0,5E0,7E0,8E0,1.1E1],"tree_param":{"num_deleted":"0","num_feature":"7","num_nodes":"51","size_leaf_vector":"1"}},{"base_weights":[-4.2755634E-4,-7.693255E-2,3.1549558E-1,-1.3518159E-1,-2.3697868E-2,2.2805823E-1,6.462379E-1,-9.068924E-3,-1.1824406E-1,-6.2489074E-2,1.2972254E-2,1.8263447E-1,3.6430106E-1,7.488678E-1,1.2690977E-3,-5.6667868E-2,-1.2582344E-1,-3.6701314E-2,-1.0404407E-1,4.103583E-2,-6.431937E-2,2.026041E-1,-5.0667625E-2,3.0220547E-1,3.6947135E-2,3.0769755E-3,8.2295835E-1,-1.0328568E-3,-3.8763403E-3,-5.666377E-3,-7.663173E-3,-6.270884E-4,-3.6876877E-3,-4.256095E-3,-7.4181645E-3,6.957105E-4,3.6981811E-3,1.3601059E-3,-4.658866E-3,8.7432945E-3,3.984334E-2,-5.7516834E-3,1.191597E-3,2.2953296E-2,1.2193131E-2,3.3741307E-2,5.748948E-2],"categories":[],"categories_nodes":[],"categories_segments":[],"categories_sizes":[],"default_left":[0,0,0,0,0,0,0,0,0,0,0,0,0,0,0,0,0,0,0,0,0,0,0,0,0,0,0,0,0,0,0,0,0,0,0,0,0,0,0,0,0,0,0,0,0,0,0],"id":7,"left_children":[1,3,5,7,9,11,13,-1,15,17,19,21,23,25,-1,27,29,31,33,35,37,39,41,43,-1,-1,45,-1,-1,-1,-1,-1,-1,-1,-1,-1,-1,-1,-1,-1,-1,-1,-1,-1,-1,-1,-1],"loss_changes":[2.1076077E1,2.1736064E0,4.7688885E0,2.4067783E-1,5.242826E-1,7.751236E-1,2.2111368E0,0E0,1.0861373E-1,1.8799967E-1,4.147645E-1,4.9479723E-1,5.443864E-1,1.4770927E0,0E0,2.0181745E-2,5.8066368E-2,9.9334046E-2,4.4396996E-2,1.2399855E-1,1.3723187E-1,1.4430988E0,4.589865E-2,1.6260147E-1,0E0,0E0,5.312748E-1,0E0,0E0,0E0,0E0,0E0,0E0,0E0,0E0,0E0,0E0,0E0,0E0,0E0,0E0,0E0,0E0,0E0,0E0,0E0,0E0],"parents":[2147483647,0,0,1,1,2,2,3,3,4,4,5,5,6,6,8,8,9,9,10,10,11,11,12,12,13,13,15,15,16,16,17,17,18,18,19,19,20,20,21,21,22,22,23,23,26,26],"right_children":[2,4,6,8,10,12,14,-1,16,18,20,22,24,26,-1,28,30,32,34,36,38,40,42,44,-1,-1,46,-1,-1,-1,-1,-1,-1,-1,-1,-1,-1,-1,-1,-1,-1,-1,-1,-1,-1,-1,-1],"split_conditions":[6E-1,3E-1,1.12E0,2E-1,3.9E-1,8.5E-1,2.290743E1,-9.068924E-3,9.085988E0,1.6704155E1,2.6739417E2,2.2493519E1,1.27E0,1.0853866E1,1.2690977E-3,7.731622E0,2.7217468E2,1.7428949E2,2.8602078E2,4.6E-1,1.1013882E1,2.1629978E1,2.4248611E1,5E-1,3.6947135E-2,3.0769755E-3,1.9592731E1,-1.0328568E-3,-3.8763403E-3,-5.666377E-3,-7.663173E-3,-6.270884E-4,-3.6876877E-3,-4.256095E-3,-7.4181645E-3,6.957105E-4,3.6981811E-3,1.3601059E-3,-4.658866E-3,8.7432945E-3,3.984334E-2,-5.7516834E-3,1.191597E-3,2.2953296E-2,1.2193131E-2,3.3741307E-2,5.748948E-2],"split_indices":[0,0,0,0,0,0,5,0,5,5,6,5,2,5,0,5,6,6,6,0,5,5,5,2,0,0,5,0,0,0,0,0,0,0,0,0,0,0,0,0,0,0,0,0,0,0,0],"split_type":[0,0,0,0,0,0,0,0,0,0,0,0,0,0,0,0,0,0,0,0,0,0,0,0,0,0,0,0,0,0,0,0,0,0,0,0,0,0,0,0,0,0,0,0,0,0,0],"sum_hessian":[8.7E2,7.01E2,1.69E2,3.34E2,3.67E2,1.35E2,3.4E1,8.7E1,2.47E2,1.78E2,1.89E2,1.03E2,3.2E1,2.9E1,5E0,2.8E1,2.19E2,1.11E2,6.7E1,1.39E2,5E1,9.5E1,8E0,2.9E1,3E0,3E0,2.6E1,1.1E1,1.7E1,1.54E2,6.5E1,6.8E1,4.3E1,4.9E1,1.8E1,7.7E1,6.2E1,1.2E1,3.8E1,9.2E1,3E0,4E0,4E0,6E0,2.3E1,2E1,6E0],"tree_param":{"num_deleted":"0","num_feature":"7","num_nodes":"47","size_leaf_vector":"1"}},{"base_weights":[7.6712044E-3,-6.9760635E-2,3.1031573E-1,-1.3343577E-1,-2.1052329E-2,2.4510065E-1,7.334812E-1,-1.6207865E-1,-1.2006097E-1,6.575507E-3,-6.796973E-2,2.2922492E-1,3.3617627E-2,7.0716366E-3,8.5067916E-1,-8.371013E-3,-7.329897E-2,-1.1353719E-1,-1.5218988E-1,-1.5557764E-2,7.896768E-2,-9.47518E-2,-3.8721494E-2,1.4677137E-2,2.4444492E-1,9.0750647E-1,2.0535016E-2,-1.013523E-3,-5.400137E-3,-5.822992E-3,-2.3182929E-3,-8.458856E-3,-5.2189976E-3,-5.405322E-3,-2.0168822E-4,1.4965424E-3,6.348621E-3,2.3607556E-3,-5.066143E-3,-1.3249278E-3,-7.3344284E-3,6.7623532E-3,-1.1506601E-2,4.554968E-2,1.1159969E-2,5.165186E-2,2.6305785E-2],"categories":[],"categories_nodes":[],"categories_segments":[],"categories_sizes":[],"default_left":[0,0,0,0,0,0,0,0,0,0,0,0,0,0,0,0,0,0,0,0,0,0,0,0,0,0,0,0,0,0,0,0,0,0,0,0,0,0,0,0,0,0,0,0,0,0,0],"id":8,"left_children":[1,3,5,7,9,11,13,15,17,19,21,23,-1,-1,25,-1,27,29,31,33,35,37,39,41,43,45,-1,-1,-1,-1,-1,-1,-1,-1,-1,-1,-1,-1,-1,-1,-1,-1,-1,-1,-1,-1,-1],"loss_changes":[2.024547E1,2.1310284E0,4.6772537E0,9.4702244E-2,5.072714E-1,8.904524E-1,1.4755831E0,3.135705E-2,2.6108503E-2,3.9699063E-1,1.0991365E-1,4.8622513E-1,0E0,0E0,1.023407E-1,0E0,1.069276E-2,2.9152155E-2,8.330405E-3,2.0220481E-1,1.3273165E-1,7.474941E-2,8.980988E-2,3.558075E-1,1.7792339E0,2.2252274E-1,0E0,0E0,0E0,0E0,0E0,0E0,0E0,0E0,0E0,0E0,0E0,0E0,0E0,0E0,0E0,0E0,0E0,0E0,0E0,0E0,0E0],"parents":[2147483647,0,0,1,1,2,2,3,3,4,4,5,5,6,6,7,7,8,8,9,9,10,10,11,11,14,14,16,16,17,17,18,18,19,19,20,20,21,21,22,22,23,23,24,24,25,25],"right_children":[2,4,6,8,10,12,14,16,18,20,22,24,-1,-1,26,-1,28,30,32,34,36,38,40,42,44,46,-1,-1,-1,-1,-1,-1,-1,-1,-1,-1,-1,-1,-1,-1,-1,-1,-1,-1,-1,-1,-1],"split_conditions":[6E-1,2.8E-1,1.27E0,2E-1,2.2803651E2,1.92E0,1.8275251E1,2.2877335E1,3.9E-1,4.6E-1,3.7E-1,2.7E-1,3.3617627E-2,7.0716366E-3,2.8766342E2,-8.371013E-3,2.3537745E1,8.599999E0,2.3018997E1,4.8596798E1,1.25900185E2,2E-1,8E-1,2.3436156E2,3E-1,1.5E0,2.0535016E-2,-1.013523E-3,-5.400137E-3,-5.822992E-3,-2.3182929E-3,-8.458856E-3,-5.2189976E-3,-5.405322E-3,-2.0168822E-4,1.4965424E-3,6.348621E-3,2.3607556E-3,-5.066143E-3,-1.3249278E-3,-7.3344284E-3,6.7623532E-3,-1.1506601E-2,4.554968E-2,1.1159969E-2,5.165186E-2,2.6305785E-2],"split_indices":[0,0,0,0,6,2,3,3,2,0,0,2,0,0,6,0,3,4,3,6,6,2,2,6,2,2,0,0,0,0,0,0,0,0,0,0,0,0,0,0,0,0,0,0,0,0,0],"split_type":[0,0,0,0,0,0,0,0,0,0,0,0,0,0,0,0,0,0,0,0,0,0,0,0,0,0,0,0,0,0,0,0,0,0,0,0,0,0,0,0,0,0,0,0,0,0,0],"sum_hessian":[8.62E2,6.87E2,1.75E2,2.97E2,3.9E2,1.53E2,2.2E1,9.1E1,2.06E2,2.46E2,1.44E2,1.49E2,4E0,4E0,1.8E1,8.5E1,6E0,1.75E2,3.1E1,1.89E2,5.7E1,7.4E1,7E1,1E1,1.39E2,1.5E1,3E0,3E0,3E0,1.67E2,8E0,2.1E1,1E1,2E1,1.69E2,2.9E1,2.8E1,3E0,7.1E1,6.4E1,6E0,7E0,3E0,3E0,1.36E2,1E1,5E0],"tree_param":{"num_deleted":"0","num_feature":"7","num_nodes":"47","size_leaf_vector":"1"}},{"base_weights":[3.4018916E-3,-7.079107E-2,2.8233185E-1,-1.0591333E-1,9.907138E-3,1.936892E-1,5.9556985E-1,-1.2978432E-1,-6.2371954E-2,2.8974585E-2,-2.8934257E-2,1.7578748E-1,3.2272924E-2,6.985219E-1,2.7000803E-1,-8.076648E-3,-1.15106195E-1,-6.766867E-2,4.595876E-3,4.0378715E-3,7.0138425E-2,-1.5882518E-2,-7.020096E-3,1.8668531E-1,-5.327013E-2,3.9411407E-2,4.115939E-1,-4.969501E-3,4.952912E-1,-5.944178E-3,-3.4104865E-3,-3.9203404E-3,-5.3381716E-4,2.3008802E-3,-9.432025E-4,1.6090198E-3,5.4922937E-3,-1.794946E-3,2.195416E-3,8.145656E-3,1.4561399E-2,-6.089276E-3,1.4281396E-3,8.558054E-3,3.3467233E-2,4.509732E-3,3.882825E-2],"categories":[],"categories_nodes":[],"categories_segments":[],"categories_sizes":[],"default_left":[0,0,0,0,0,0,0,0,0,0,0,0,0,0,0,0,0,0,0,0,0,0,0,0,0,0,0,0,0,0,0,0,0,0,0,0,0,0,0,0,0,0,0,0,0,0,0],"id":9,"left_children":[1,3,5,7,9,11,13,15,17,19,21,23,-1,25,27,-1,29,31,-1,33,35,37,-1,39,41,-1,43,-1,45,-1,-1,-1,-1,-1,-1,-1,-1,-1,-1,-1,-1,-1,-1,-1,-1,-1,-1],"loss_changes":[1.7631124E1,1.908536E0,4.854802E0,4.7937202E-1,1.5266263E-1,1.0268669E0,1.1185675E0,1.2214184E-1,1.4351422E-1,1.4137252E-1,9.669964E-2,3.5192823E-1,0E0,4.2200756E-1,9.646378E-1,0E0,2.9091358E-2,9.8917425E-2,0E0,8.451131E-2,7.484034E-2,7.577771E-2,0E0,2.7811718E-1,4.272624E-2,0E0,4.4317985E-1,0E0,7.275592E-1,0E0,0E0,0E0,0E0,0E0,0E0,0E0,0E0,0E0,0E0,0E0,0E0,0E0,0E0,0E0,0E0,0E0,0E0],"parents":[2147483647,0,0,1,1,2,2,3,3,4,4,5,5,6,6,7,7,8,8,9,9,10,10,11,11,13,13,14,14,16,16,17,17,19,19,20,20,21,21,23,23,24,24,26,26,28,28],"right_children":[2,4,6,8,10,12,14,16,18,20,22,24,-1,26,28,-1,30,32,-1,34,36,38,-1,40,42,-1,44,-1,46,-1,-1,-1,-1,-1,-1,-1,-1,-1,-1,-1,-1,-1,-1,-1,-1,-1,-1],"split_conditions":[6E-1,3.7E-1,1.12E0,2.8E-1,2.2803651E2,2.1E0,2.658151E2,2E-1,2.748775E1,4.6E-1,8E-1,1.7000002E0,3.2272924E-2,1E-1,1.48E0,-8.076648E-3,2.1E0,5E-1,4.595876E-3,1.0517546E2,1.25900185E2,3.0246704E2,-7.020096E-3,8.8E-1,4.2E-1,3.9411407E-2,2.1E0,-4.969501E-3,2.0598167E1,-5.944178E-3,-3.4104865E-3,-3.9203404E-3,-5.3381716E-4,2.3008802E-3,-9.432025E-4,1.6090198E-3,5.4922937E-3,-1.794946E-3,2.195416E-3,8.145656E-3,1.4561399E-2,-6.089276E-3,1.4281396E-3,8.558054E-3,3.3467233E-2,4.509732E-3,3.882825E-2],"split_indices":[0,0,0,0,6,2,6,0,3,0,2,4,0,4,0,0,4,2,0,6,6,6,0,2,2,0,0,0,3,0,0,0,0,0,0,0,0,0,0,0,0,0,0,0,0,0,0],"split_type":[0,0,0,0,0,0,0,0,0,0,0,0,0,0,0,0,0,0,0,0,0,0,0,0,0,0,0,0,0,0,0,0,0,0,0,0,0,0,0,0,0,0,0,0,0,0,0],"sum_hessian":[8.5E2,6.72E2,1.78E2,4.68E2,2.04E2,1.4E2,3.8E1,3.01E2,1.67E2,1.37E2,6.7E1,1.36E2,4E0,2.8E1,1E1,9.2E1,2.09E2,1.62E2,5E0,8.6E1,5.1E1,6.1E1,6E0,1.3E2,6E0,2E1,8E0,4E0,6E0,1.92E2,1.7E1,1.36E2,2.6E1,3E1,5.6E1,2.7E1,2.4E1,4.6E1,1.5E1,1.08E2,2.2E1,3E0,3E0,5E0,3E0,3E0,3E0],"tree_param":{"num_deleted":"0","num_feature":"7","num_nodes":"47","size_leaf_vector":"1"}},{"base_weights":[3.8465909E-3,-6.932724E-2,2.9076505E-1,-1.2252767E-1,-2.0174854E-2,2.1180141E-1,6.891713E-1,-1.5349594E-1,-1.09992355E-1,-3.98797E-2,2.7526313E-2,1.9583407E-1,3.7282556E-2,1.9702204E-1,8.089919E-1,-7.85632E-3,-9.4827875E-2,-1.0146543E-1,-1.3416627E-1,-7.6711643E-3,-6.1233297E-2,4.7642257E-2,-3.0930895E-2,-1.04866445E-1,2.1389501E-1,2.6337819E-3,1.4605646E-2,6.395093E-1,5.234166E-2,-2.1571491E-3,-6.786351E-3,-5.4099085E-3,-3.734547E-3,-7.4133365E-3,-4.6514072E-3,-3.6258318E-3,2.9166572E-4,-4.536591E-3,-1.658194E-3,1.2773966E-3,7.0840577E-3,1.4031989E-3,-3.0176444E-3,1.5782098E-3,-1.1016189E-2,9.273882E-3,2.0346047E-2,3.8390007E-2,3.13434E-3],"categories":[],"categories_nodes":[],"categories_segments":[],"categories_sizes":[],"default_left":[0,0,0,0,0,0,0,0,0,0,0,0,0,0,0,0,0,0,0,0,0,0,0,0,0,0,0,0,0,0,0,0,0,0,0,0,0,0,0,0,0,0,0,0,0,0,0,0,0],"id":10,"left_children":[1,3,5,7,9,11,13,15,17,19,21,23,-1,25,27,-1,29,31,33,35,37,39,41,43,45,-1,-1,47,-1,-1,-1,-1,-1,-1,-1,-1,-1,-1,-1,-1,-1,-1,-1,-1,-1,-1,-1,-1,-1],"loss_changes":[1.8390715E1,1.8227475E0,5.453843E0,1.1316252E-1,3.432374E-1,1.1326013E0,1.5507298E0,5.121231E-3,3.6269903E-2,1.7697442E-1,1.2729728E-1,8.207779E-1,0E0,8.069494E-2,2.576704E-1,0E0,1.1055276E-2,2.490735E-2,2.1010876E-2,9.149625E-2,1.2533194E-1,1.625984E-1,5.0294653E-2,1.487216E-1,6.869807E-1,0E0,0E0,1.1358857E0,0E0,0E0,0E0,0E0,0E0,0E0,0E0,0E0,0E0,0E0,0E0,0E0,0E0,0E0,0E0,0E0,0E0,0E0,0E0,0E0,0E0],"parents":[2147483647,0,0,1,1,2,2,3,3,4,4,5,5,6,6,7,7,8,8,9,9,10,10,11,11,13,13,14,14,16,16,17,17,18,18,19,19,20,20,21,21,22,22,23,23,24,24,27,27],"right_children":[2,4,6,8,10,12,14,16,18,20,22,24,-1,26,28,-1,30,32,34,36,38,40,42,44,46,-1,-1,48,-1,-1,-1,-1,-1,-1,-1,-1,-1,-1,-1,-1,-1,-1,-1,-1,-1,-1,-1,-1,-1],"split_conditions":[6E-1,3E-1,1.27E0,2E-1,4.3E-1,2.1E0,1.8275251E1,2.2877335E1,2.8958878E2,1.2762635E2,2.4855217E2,2.2E-1,3.7282556E-2,1.5914834E1,1.8552744E2,-7.85632E-3,2.3537745E1,2.4459232E2,3.229141E2,4.8596798E1,3.2E-1,2.6523169E1,1.5062751E1,6.3E-1,1.02E0,2.6337819E-3,1.4605646E-2,4E-1,5.234166E-2,-2.1571491E-3,-6.786351E-3,-5.4099085E-3,-3.734547E-3,-7.4133365E-3,-4.6514072E-3,-3.6258318E-3,2.9166572E-4,-4.536591E-3,-1.658194E-3,1.2773966E-3,7.0840577E-3,1.4031989E-3,-3.0176444E-3,1.5782098E-3,-1.1016189E-2,9.273882E-3,2.0346047E-2,3.8390007E-2,3.13434E-3],"split_indices":[0,0,0,0,0,2,3,3,6,6,6,2,0,3,6,0,3,6,6,6,0,3,3,0,0,0,0,4,0,0,0,0,0,0,0,0,0,0,0,0,0,0,0,0,0,0,0,0,0],"split_type":[0,0,0,0,0,0,0,0,0,0,0,0,0,0,0,0,0,0,0,0,0,0,0,0,0,0,0,0,0,0,0,0,0,0,0,0,0,0,0,0,0,0,0,0,0,0,0,0,0],"sum_hessian":[8.74E2,6.97E2,1.77E2,3.34E2,3.63E2,1.49E2,2.8E1,9.3E1,2.41E2,2.57E2,1.06E2,1.46E2,3E0,6E0,2.2E1,8.6E1,7E0,1.82E2,5.9E1,1.03E2,1.54E2,7.9E1,2.7E1,8E0,1.38E2,3E0,3E0,1.5E1,7E0,4E0,3E0,1.43E2,3.9E1,4.2E1,1.7E1,1.7E1,8.6E1,7.4E1,8E1,6.5E1,1.4E1,9E0,1.8E1,4E0,4E0,1.22E2,1.6E1,1.2E1,3E0],"tree_param":{"num_deleted":"0","num_feature":"7","num_nodes":"49","size_leaf_vector":"1"}},{"base_weights":[-1.40475E-3,-4.363447E-2,1.7267267E-1,-9.0337776E-2,-1.1496887E-3,1.1918029E-1,4.797457E-1,-1.0728903E-1,-5.8468036E-2,2.1481896E-2,-8.7378845E-2,1.7339198E-1,3.8611975E-2,5.7133424E-1,8.7212055E-4,-1.0944537E-1,1.5292345E-3,-4.1974537E-2,-1.5010892E-1,1.2647065E-2,2.5420105E-2,-7.161772E-2,-1.4003678E-1,1.4737105E-1,3.172367E-1,-1.0990932E-2,6.7139745E-2,7.512965E-1,3.162423E-1,-6.440385E-3,-5.010716E-3,-2.6670375E-3,1.5016396E-3,-8.338883E-3,-3.8374213E-3,1.3956468E-3,-4.5374436E-3,-2.0143474E-3,-4.5975316E-3,-8.046768E-3,-1.8553635E-3,1.0254801E-2,4.440302E-3,8.814818E-3,2.1439714E-2,4.325275E-3,-3.623943E-3,1.8868316E-2,4.555307E-2,2.8835991E-2,-2.978958E-3],"categories":[],"categories_nodes":[],"categories_segments":[],"categories_sizes":[],"default_left":[0,0,0,0,0,0,0,0,0,0,0,0,0,0,0,0,0,0,0,0,0,0,0,0,0,0,0,0,0,0,0,0,0,0,0,0,0,0,0,0,0,0,0,0,0,0,0,0,0,0,0],"id":11,"left_children":[1,3,5,7,9,11,13,15,17,19,21,23,25,27,-1,29,-1,31,33,35,-1,37,39,41,43,-1,45,47,49,-1,-1,-1,-1,-1,-1,-1,-1,-1,-1,-1,-1,-1,-1,-1,-1,-1,-1,-1,-1,-1,-1],"loss_changes":[6.1752257E0,1.3412017E0,2.6366992E0,1.676817E-1,6.946605E-1,6.0915685E-1,1.0062346E0,6.548381E-2,1.6600782E-1,1.2066942E0,5.1387012E-2,2.6765847E-1,4.4236052E-1,6.8054676E-1,0E0,2.391076E-2,0E0,8.181015E-2,7.988155E-3,4.4133633E-1,0E0,3.3881247E-2,2.8445363E-2,2.2857463E-1,1.1308062E-1,0E0,1.4957228E-1,3.133459E-1,1.013291E0,0E0,0E0,0E0,0E0,0E0,0E0,0E0,0E0,0E0,0E0,0E0,0E0,0E0,0E0,0E0,0E0,0E0,0E0,0E0,0E0,0E0,0E0],"parents":[2147483647,0,0,1,1,2,2,3,3,4,4,5,5,6,6,7,7,8,8,9,9,10,10,11,11,12,12,13,13,15,15,17,17,18,18,19,19,21,21,22,22,23,23,24,24,26,26,27,27,28,28],"right_children":[2,4,6,8,10,12,14,16,18,20,22,24,26,28,-1,30,-1,32,34,36,-1,38,40,42,44,-1,46,48,50,-1,-1,-1,-1,-1,-1,-1,-1,-1,-1,-1,-1,-1,-1,-1,-1,-1,-1,-1,-1,-1,-1],"split_conditions":[6E-1,3E-1,1.2E0,1.9316917E1,2.794147E2,2.0194603E2,2.5392783E2,6E-1,2.9471576E2,2.7765646E2,1E-1,2.7212748E1,3.1E-1,1.88E0,8.7212055E-4,2E-1,1.5292345E-3,6E-1,3.1230566E2,2.4589775E2,2.5420105E-2,1.58065E1,1.3E0,2.2529413E1,1.5629733E2,-1.0990932E-2,2E-1,1.27E0,1E-1,-6.440385E-3,-5.010716E-3,-2.6670375E-3,1.5016396E-3,-8.338883E-3,-3.8374213E-3,1.3956468E-3,-4.5374436E-3,-2.0143474E-3,-4.5975316E-3,-8.046768E-3,-1.8553635E-3,1.0254801E-2,4.440302E-3,8.814818E-3,2.1439714E-2,4.325275E-3,-3.623943E-3,1.8868316E-2,4.555307E-2,2.8835991E-2,-2.978958E-3],"split_indices":[1,1,1,3,6,6,6,2,6,6,4,3,2,1,0,1,0,4,6,6,0,3,4,3,6,0,4,1,4,0,0,0,0,0,0,0,0,0,0,0,0,0,0,0,0,0,0,0,0,0,0],"split_type":[0,0,0,0,0,0,0,0,0,0,0,0,0,0,0,0,0,0,0,0,0,0,0,0,0,0,0,0,0,0,0,0,0,0,0,0,0,0,0,0,0,0,0,0,0,0,0,0,0,0,0],"sum_hessian":[8.38E2,6.75E2,1.63E2,3.21E2,3.54E2,1.4E2,2.3E1,2.08E2,1.13E2,2.81E2,7.3E1,8.3E1,5.7E1,1.9E1,4E0,2.05E2,3E0,9.7E1,1.6E1,2.77E2,4E0,5.8E1,1.5E1,7.2E1,1.1E1,5E0,5.2E1,1E1,9E0,6.2E1,1.43E2,8.4E1,1.3E1,1.2E1,4E0,2.42E2,3.5E1,2.4E1,3.4E1,1.2E1,3E0,3.5E1,3.7E1,6E0,5E0,4.6E1,6E0,4E0,6E0,5E0,4E0],"tree_param":{"num_deleted":"0","num_feature":"7","num_nodes":"51","size_leaf_vector":"1"}},{"base_weights":[5.276301E-3,-6.1874796E-2,2.6457652E-1,-9.580506E-2,1.7894366E-3,1.8063849E-1,5.655653E-1,-1.1541181E-1,-6.1506495E-2,2.5238091E-2,-4.006543E-2,1.442093E-1,2.9318476E-1,2.994232E-1,6.871201E-1,-1.4532384E-1,-1.06939994E-1,-7.37894E-2,1.5265498E-2,8.060092E-3,1.07648455E-1,-2.500341E-2,-1.2503834E-1,3.2739466E-1,1.2054836E-1,2.288813E-2,1.8260764E-1,4.0990573E-1,9.286714E-4,8.470009E-1,3.9210063E-1,-7.5842477E-3,-3.0866396E-3,-4.0635695E-3,-5.7389564E-3,-4.88765E-4,-4.2275838E-3,6.6538686E-3,-3.2146722E-3,1.5141898E-3,-1.7542422E-3,1.0412752E-3,9.339112E-3,8.534669E-4,-2.6406616E-3,-7.1295584E-3,-2.4948362E-3,2.6584638E-2,-3.2480606E-3,6.7429654E-3,-1.8772787E-3,4.702527E-3,2.7880097E-2,3.023844E-2,1.1999873E-2,2.6573619E-2,5.1667977E-2,3.444881E-2,1.4937483E-3],"categories":[],"categories_nodes":[],"categories_segments":[],"categories_sizes":[],"default_left":[0,0,0,0,0,0,0,0,0,0,0,0,0,0,0,0,0,0,0,0,0,0,0,0,0,0,0,0,0,0,0,0,0,0,0,0,0,0,0,0,0,0,0,0,0,0,0,0,0,0,0,0,0,0,0,0,0,0,0],"id":12,"left_children":[1,3,5,7,9,11,13,15,17,19,21,23,25,27,29,31,33,35,37,39,41,43,45,47,49,-1,51,53,-1,55,57,-1,-1,-1,-1,-1,-1,-1,-1,-1,-1,-1,-1,-1,-1,-1,-1,-1,-1,-1,-1,-1,-1,-1,-1,-1,-1,-1,-1],"loss_changes":[1.5321778E1,1.510112E0,4.4706936E0,2.9955435E-1,2.4048258E-1,5.4401636E-1,1.0559435E0,5.7694197E-2,1.5954757E-1,2.2138861E-1,1.09501585E-1,4.3731046E-1,5.351591E-1,4.2679274E-1,8.942566E-1,2.3071766E-2,3.675127E-2,9.90693E-2,2.3350772E-1,1.2667057E-1,1.8161711E-1,8.98242E-2,1.0031477E-2,9.9643004E-1,2.2904849E-1,0E0,6.7814225E-1,1.8594539E-1,0E0,3.916216E-1,1.1623124E0,0E0,0E0,0E0,0E0,0E0,0E0,0E0,0E0,0E0,0E0,0E0,0E0,0E0,0E0,0E0,0E0,0E0,0E0,0E0,0E0,0E0,0E0,0E0,0E0,0E0,0E0,0E0,0E0],"parents":[2147483647,0,0,1,1,2,2,3,3,4,4,5,5,6,6,7,7,8,8,9,9,10,10,11,11,12,12,13,13,14,14,15,15,16,16,17,17,18,18,19,19,20,20,21,21,22,22,23,23,24,24,26,26,27,27,29,29,30,30],"right_children":[2,4,6,8,10,12,14,16,18,20,22,24,26,28,30,32,34,36,38,40,42,44,46,48,50,-1,52,54,-1,56,58,-1,-1,-1,-1,-1,-1,-1,-1,-1,-1,-1,-1,-1,-1,-1,-1,-1,-1,-1,-1,-1,-1,-1,-1,-1,-1,-1,-1],"split_conditions":[6E-1,3.2E-1,1.12E0,2.5E-1,2.227095E2,8.5E-1,2.0469002E1,1.5E-1,2.4910666E1,5.1E-1,6.3E-1,3.5E-1,6.7E-1,2.4855217E2,2.4814835E1,2.2877335E1,9.090937E1,5.572436E1,1.1195646E2,4.2E-1,1.1323849E2,1.6429415E1,3.1230566E2,6.5E-1,2.9291833E2,2.288813E-2,1.27E0,1.42E0,9.286714E-4,1.14E0,1.09E0,-7.5842477E-3,-3.0866396E-3,-4.0635695E-3,-5.7389564E-3,-4.88765E-4,-4.2275838E-3,6.6538686E-3,-3.2146722E-3,1.5141898E-3,-1.7542422E-3,1.0412752E-3,9.339112E-3,8.534669E-4,-2.6406616E-3,-7.1295584E-3,-2.4948362E-3,2.6584638E-2,-3.2480606E-3,6.7429654E-3,-1.8772787E-3,4.702527E-3,2.7880097E-2,3.023844E-2,1.1999873E-2,2.6573619E-2,5.1667977E-2,3.444881E-2,1.4937483E-3],"split_indices":[0,0,0,0,6,0,3,0,3,0,1,1,1,6,3,3,6,6,6,1,6,3,6,0,6,0,1,0,0,1,1,0,0,0,0,0,0,0,0,0,0,0,0,0,0,0,0,0,0,0,0,0,0,0,0,0,0,0,0],"split_type":[0,0,0,0,0,0,0,0,0,0,0,0,0,0,0,0,0,0,0,0,0,0,0,0,0,0,0,0,0,0,0,0,0,0,0,0,0,0,0,0,0,0,0,0,0,0,0,0,0,0,0,0,0,0,0,0,0,0,0],"sum_hessian":[8.78E2,6.98E2,1.8E2,4.55E2,2.43E2,1.42E2,3.8E1,2.88E2,1.67E2,1.56E2,8.7E1,1.09E2,3.3E1,1.3E1,2.5E1,6E1,2.28E2,1.44E2,2.3E1,1.3E2,2.6E1,7.5E1,1.2E1,1.1E1,9.8E1,1.2E1,2.1E1,9E0,4E0,1.5E1,1E1,5.5E1,5E0,5.6E1,1.72E2,2.1E1,1.23E2,9E0,1.4E1,8.6E1,4.4E1,1.3E1,1.3E1,3E1,4.5E1,9E0,3E0,7E0,4E0,9E1,8E0,1.8E1,3E0,3E0,6E0,7E0,8E0,5E0,5E0],"tree_param":{"num_deleted":"0","num_feature":"7","num_nodes":"59","size_leaf_vector":"1"}},{"base_weights":[2.6989765E-3,-3.9961256E-2,3.5647136E-1,-7.4295744E-2,6.619362E-2,3.0744886E-1,6.8950534E-1,-1.09190635E-1,-3.7405025E-2,2.9367557E-2,1.2330052E-1,2.79014E-1,3.4477152E-2,4.2785138E-2,9.23671E-3,-1.3488449E-1,-9.598869E-2,-1.7648596E-2,-6.813646E-2,4.820792E-2,-2.1006133E-2,3.0302468E-1,8.652648E-2,3.5468316E-1,7.027957E-2,-7.0832944E-3,-5.2509215E-3,-4.1435896E-3,-5.4072845E-3,-2.3302766E-3,-1.5089926E-4,-3.6574513E-4,-4.120271E-3,1.5667856E-3,5.21397E-3,1.5096718E-3,-2.6617774E-3,2.2925701E-2,-6.129124E-3,5.3831083E-3,-4.7459933E-3,9.103299E-3,2.6986843E-2,6.12599E-3,-1.8227907E-3],"categories":[],"categories_nodes":[],"categories_segments":[],"categories_sizes":[],"default_left":[0,0,0,0,0,0,0,0,0,0,0,0,0,0,0,0,0,0,0,0,0,0,0,0,0,0,0,0,0,0,0,0,0,0,0,0,0,0,0,0,0,0,0,0,0],"id":13,"left_children":[1,3,5,7,9,11,13,15,17,19,21,23,-1,-1,-1,25,27,29,31,33,35,37,39,41,43,-1,-1,-1,-1,-1,-1,-1,-1,-1,-1,-1,-1,-1,-1,-1,-1,-1,-1,-1,-1],"loss_changes":[1.29028225E1,2.78588E0,1.29002E0,7.386863E-1,3.8964415E-1,6.9852114E-1,7.6473045E-1,8.745837E-2,1.7001194E-1,1.10154405E-1,4.5625067E-1,1.2070642E0,0E0,0E0,0E0,4.970789E-3,2.2770762E-2,7.3152125E-2,9.4861925E-2,7.62005E-2,5.4411583E-2,8.5033417E-1,2.4798876E-1,1.7225089E0,1.2713593E-1,0E0,0E0,0E0,0E0,0E0,0E0,0E0,0E0,0E0,0E0,0E0,0E0,0E0,0E0,0E0,0E0,0E0,0E0,0E0,0E0],"parents":[2147483647,0,0,1,1,2,2,3,3,4,4,5,5,6,6,7,7,8,8,9,9,10,10,11,11,15,15,16,16,17,17,18,18,19,19,20,20,21,21,22,22,23,23,24,24],"right_children":[2,4,6,8,10,12,14,16,18,20,22,24,-1,-1,-1,26,28,30,32,34,36,38,40,42,44,-1,-1,-1,-1,-1,-1,-1,-1,-1,-1,-1,-1,-1,-1,-1,-1,-1,-1,-1,-1],"split_conditions":[7.5E-1,4.3E-1,2E0,2.7E-1,6E-1,2E0,1.4E0,2E-1,2.3436156E2,2.4459232E2,3.5E-1,1.04E0,3.4477152E-2,4.2785138E-2,9.23671E-3,3.059671E2,2.2E-1,1.8527334E1,2.2E-1,2.6135668E1,1.5135667E1,6.5E-1,2.8148169E1,9.3E-1,1.23E0,-7.0832944E-3,-5.2509215E-3,-4.1435896E-3,-5.4072845E-3,-2.3302766E-3,-1.5089926E-4,-3.6574513E-4,-4.120271E-3,1.5667856E-3,5.21397E-3,1.5096718E-3,-2.6617774E-3,2.2925701E-2,-6.129124E-3,5.3831083E-3,-4.7459933E-3,9.103299E-3,2.6986843E-2,6.12599E-3,-1.8227907E-3],"split_indices":[0,0,0,0,0,2,2,0,6,6,1,1,0,0,0,6,2,3,2,3,3,0,3,0,0,0,0,0,0,0,0,0,0,0,0,0,0,0,0,0,0,0,0,0,0],"split_type":[0,0,0,0,0,0,0,0,0,0,0,0,0,0,0,0,0,0,0,0,0,0,0,0,0,0,0,0,0,0,0,0,0,0,0,0,0,0,0,0,0,0,0,0,0],"sum_hessian":[8.53E2,7.62E2,9.1E1,5.76E2,1.86E2,8.1E1,1E1,2.95E2,2.81E2,1.14E2,7.2E1,7.7E1,4E0,7E0,3E0,9.7E1,1.98E2,1.72E2,1.09E2,8.3E1,3.1E1,1.1E1,6.1E1,5.6E1,2.1E1,7.6E1,2.1E1,9.9E1,9.9E1,5.7E1,1.15E2,2.1E1,8.8E1,6.5E1,1.8E1,1.2E1,1.9E1,8E0,3E0,5.5E1,6E0,3E1,2.6E1,1.4E1,7E0],"tree_param":{"num_deleted":"0","num_feature":"7","num_nodes":"45","size_leaf_vector":"1"}},{"base_weights":[7.4323104E-3,-5.2467406E-2,2.4350543E-1,-8.517063E-2,1.2025678E-2,1.8334602E-1,5.7427186E-1,-1.0274573E-1,-4.968917E-2,3.1642683E-2,-4.3756265E-2,1.6881894E-1,3.302423E-2,6.415168E-1,2.2022778E-3,-1.2482946E-1,-9.1902874E-2,-3.0724453E-2,-9.099994E-2,3.914484E-2,-4.0178113E-3,-9.899456E-3,-7.728309E-2,-9.660126E-2,1.8308568E-1,7.403709E-3,7.0812947E-1,-6.452066E-3,-3.4888492E-3,-4.0335534E-3,-5.7426686E-3,4.5182114E-3,-1.8207369E-3,-2.7501513E-3,-5.7813586E-3,-7.089663E-3,2.1752699E-3,-2.6359286E-3,9.95943E-4,-4.293839E-3,2.2541733E-6,3.8094723E-3,-1.0775679E-2,8.002087E-3,1.7367652E-2,3.8740095E-2,1.7657593E-2],"categories":[],"categories_nodes":[],"categories_segments":[],"categories_sizes":[],"default_left":[0,0,0,0,0,0,0,0,0,0,0,0,0,0,0,0,0,0,0,0,0,0,0,0,0,0,0,0,0,0,0,0,0,0,0,0,0,0,0,0,0,0,0,0,0,0,0],"id":14,"left_children":[1,3,5,7,9,11,13,15,17,19,21,23,-1,25,-1,27,29,31,33,35,-1,37,39,41,43,-1,45,-1,-1,-1,-1,-1,-1,-1,-1,-1,-1,-1,-1,-1,-1,-1,-1,-1,-1,-1,-1],"loss_changes":[1.2018242E1,1.4310154E0,3.3172884E0,2.755103E-1,2.5197345E-1,9.0741825E-1,8.987751E-1,6.0363054E-2,1.1550456E-1,1.4598525E-1,6.734162E-2,5.6296825E-1,0E0,6.511431E-1,0E0,1.3255596E-2,4.3578744E-2,7.563867E-2,3.5305798E-2,1.3240731E-1,0E0,4.0630706E-2,1.99399E-2,1.807954E-1,4.630046E-1,0E0,1.9972134E-1,0E0,0E0,0E0,0E0,0E0,0E0,0E0,0E0,0E0,0E0,0E0,0E0,0E0,0E0,0E0,0E0,0E0,0E0,0E0,0E0],"parents":[2147483647,0,0,1,1,2,2,3,3,4,4,5,5,6,6,7,7,8,8,9,9,10,10,11,11,13,13,15,15,16,16,17,17,18,18,19,19,21,21,22,22,23,23,24,24,26,26],"right_children":[2,4,6,8,10,12,14,16,18,20,22,24,-1,26,-1,28,30,32,34,36,-1,38,40,42,44,-1,46,-1,-1,-1,-1,-1,-1,-1,-1,-1,-1,-1,-1,-1,-1,-1,-1,-1,-1,-1,-1],"split_conditions":[6E-1,3.2E-1,1.27E0,2.8E-1,2.6776303E2,2.1E0,3.0501627E2,2E-1,2.5392783E2,5.2E0,1.69065E1,2.2E-1,3.302423E-2,1.8275251E1,2.2022778E-3,2.2573166E1,2.7217468E2,9.706523E0,1.5960668E1,3.1175596E1,-4.0178113E-3,1.36315E1,3.1704416E1,6.3E-1,1.02E0,7.403709E-3,1.5E0,-6.452066E-3,-3.4888492E-3,-4.0335534E-3,-5.7426686E-3,4.5182114E-3,-1.8207369E-3,-2.7501513E-3,-5.7813586E-3,-7.089663E-3,2.1752699E-3,-2.6359286E-3,9.95943E-4,-4.293839E-3,2.2541733E-6,3.8094723E-3,-1.0775679E-2,8.002087E-3,1.7367652E-2,3.8740095E-2,1.7657593E-2],"split_indices":[0,0,0,0,6,2,6,0,6,4,3,2,0,3,0,3,6,6,3,6,0,3,3,0,0,0,2,0,0,0,0,0,0,0,0,0,0,0,0,0,0,0,0,0,0,0,0],"split_type":[0,0,0,0,0,0,0,0,0,0,0,0,0,0,0,0,0,0,0,0,0,0,0,0,0,0,0,0,0,0,0,0,0,0,0,0,0,0,0,0,0,0,0,0,0,0,0],"sum_hessian":[8.48E2,6.77E2,1.71E2,4.49E2,2.28E2,1.46E2,2.5E1,2.99E2,1.5E2,1.69E2,5.9E1,1.43E2,3E0,2.2E1,3E0,9.5E1,2.04E2,1.04E2,4.6E1,1.59E2,1E1,3E1,2.9E1,7E0,1.36E2,3E0,1.9E1,8.7E1,8E0,1.4E2,6.4E1,4E0,1E2,2E1,2.6E1,3E0,1.56E2,1.2E1,1.8E1,2.6E1,3E0,3E0,4E0,1.21E2,1.5E1,1.5E1,4E0],"tree_param":{"num_deleted":"0","num_feature":"7","num_nodes":"47","size_leaf_vector":"1"}},{"base_weights":[2.9390329E-3,-5.2464645E-2,2.2325575E-1,-9.639501E-2,-1.9046836E-2,1.3764936E-1,3.4725302E-1,-3.530713E-2,-1.01879895E-1,-3.4500584E-2,1.9895572E-2,1.5981135E-1,-4.557694E-2,2.990405E-1,3.2040015E-2,6.44169E-3,-5.1027313E-2,-1.3511506E-1,-9.341016E-2,-3.8652312E-2,7.091936E-2,5.440493E-2,-9.848396E-3,1.3359983E-1,3.5480883E-2,-7.4077183E-3,4.885756E-2,3.2110465E-1,-5.058309E-3,-1.2227008E-3,2.172545E-3,-4.2738533E-3,-1.8071122E-3,-5.0174813E-3,-7.1952543E-3,-5.1381933E-3,-3.5725553E-3,1.444783E-3,-2.3122653E-3,9.159063E-3,-9.699524E-4,-3.227803E-4,4.962559E-3,-3.4760765E-3,2.3350619E-4,7.914267E-3,2.2476465E-3,6.1115846E-3,-1.8365484E-3,1.1285993E-2,2.6291503E-2],"categories":[],"categories_nodes":[],"categories_segments":[],"categories_sizes":[],"default_left":[0,0,0,0,0,0,0,0,0,0,0,0,0,0,0,0,0,0,0,0,0,0,0,0,0,0,0,0,0,0,0,0,0,0,0,0,0,0,0,0,0,0,0,0,0,0,0,0,0,0,0],"id":15,"left_children":[1,3,5,7,9,11,13,15,17,19,21,23,25,27,-1,29,31,33,35,37,39,41,43,45,-1,-1,47,49,-1,-1,-1,-1,-1,-1,-1,-1,-1,-1,-1,-1,-1,-1,-1,-1,-1,-1,-1,-1,-1,-1,-1],"loss_changes":[1.0509181E1,1.0081867E0,1.7885885E0,9.5915794E-2,2.3659442E-1,4.2959237E-1,7.990618E-1,1.7392479E-2,6.3945055E-2,1.2572792E-1,1.1549767E-1,1.2454422E0,1.2348064E-1,5.799594E-1,0E0,1.0209953E-2,6.653618E-3,1.755476E-3,3.7845016E-2,1.4032987E-1,1.15086E-1,1.4256777E-1,5.3172972E-2,1.8983114E-1,0E0,0E0,4.8449576E-2,1.0334435E0,0E0,0E0,0E0,0E0,0E0,0E0,0E0,0E0,0E0,0E0,0E0,0E0,0E0,0E0,0E0,0E0,0E0,0E0,0E0,0E0,0E0,0E0,0E0],"parents":[2147483647,0,0,1,1,2,2,3,3,4,4,5,5,6,6,7,7,8,8,9,9,10,10,11,11,12,12,13,13,15,15,16,16,17,17,18,18,19,19,20,20,21,21,22,22,23,23,26,26,27,27],"right_children":[2,4,6,8,10,12,14,16,18,20,22,24,26,28,-1,30,32,34,36,38,40,42,44,46,-1,-1,48,50,-1,-1,-1,-1,-1,-1,-1,-1,-1,-1,-1,-1,-1,-1,-1,-1,-1,-1,-1,-1,-1,-1,-1],"split_conditions":[6E-1,2.8E-1,8.5E-1,9.220499E0,4.3E-1,2.2493519E1,2.02E0,7.42159E0,1.5E-1,2.748775E1,1.2594856E1,2.1629978E1,2.4248611E1,1.85E0,3.2040015E-2,1.4408582E1,1.1710668E1,1.7309973E1,2.015025E1,8.942214E0,3.7E-1,1.0365251E1,1.4003029E1,1.5484185E1,3.5480883E-2,-7.4077183E-3,2.0185667E1,9.5E-1,-5.058309E-3,-1.2227008E-3,2.172545E-3,-4.2738533E-3,-1.8071122E-3,-5.0174813E-3,-7.1952543E-3,-5.1381933E-3,-3.5725553E-3,1.444783E-3,-2.3122653E-3,9.159063E-3,-9.699524E-4,-3.227803E-4,4.962559E-3,-3.4760765E-3,2.3350619E-4,7.914267E-3,2.2476465E-3,6.1115846E-3,-1.8365484E-3,1.1285993E-2,2.6291503E-2],"split_indices":[0,0,0,5,0,5,0,5,0,3,5,5,5,0,0,3,3,5,3,5,0,5,5,5,0,0,3,2,0,0,0,0,0,0,0,0,0,0,0,0,0,0,0,0,0,0,0,0,0,0,0],"split_type":[0,0,0,0,0,0,0,0,0,0,0,0,0,0,0,0,0,0,0,0,0,0,0,0,0,0,0,0,0,0,0,0,0,0,0,0,0,0,0,0,0,0,0,0,0,0,0,0,0,0,0],"sum_hessian":[8.59E2,6.87E2,1.72E2,2.96E2,3.91E2,1.03E2,6.9E1,2.5E1,2.71E2,2.8E2,1.11E2,9.2E1,1.1E1,6.1E1,8E0,7E0,1.8E1,5.2E1,2.19E2,2.7E2,1E1,5.1E1,6E1,8.9E1,3E0,5E0,6E0,5.8E1,3E0,4E0,3E0,4E0,1.4E1,1.3E1,3.9E1,1.51E2,6.8E1,2.7E1,2.43E2,4E0,6E0,2.2E1,2.9E1,1.1E1,4.9E1,6.9E1,2E1,3E0,3E0,4.1E1,1.7E1],"tree_param":{"num_deleted":"0","num_feature":"7","num_nodes":"51","size_leaf_vector":"1"}},{"base_weights":[-3.1120589E-3,-3.3819165E-2,3.6683837E-1,-6.706929E-2,5.7225555E-2,1.1821616E-1,4.524292E-1,-9.7898185E-2,-3.7580617E-2,8.827005E-2,-1.661272E-2,2.0532471E-1,-7.4665505E-3,3.1415296E-1,6.469481E-1,2.831319E-2,-1.0219418E-1,-4.4971377E-2,8.01066E-3,2.6803533E-2,1.347826E-1,-1.4274277E-1,4.3287934E-3,1.9900432E-2,8.845027E-2,4.3494502E-1,6.597164E-2,4.4626546E-1,5.0369143E-2,-9.734002E-4,3.1705995E-3,-4.4898144E-3,-6.0927724E-3,2.1885331E-4,-2.592555E-3,-3.5993375E-3,2.7559919E-3,2.77659E-3,-5.1158622E-5,8.521064E-3,4.0009646E-3,7.3014724E-4,-1.1192474E-2,-5.7927123E-4,6.8112905E-3,-3.9786162E-4,7.7024074E-3,3.3770896E-2,1.5487978E-2,-3.93997E-3,9.987371E-3,3.1348187E-2,-2.192074E-4],"categories":[],"categories_nodes":[],"categories_segments":[],"categories_sizes":[],"default_left":[0,0,0,0,0,0,0,0,0,0,0,0,0,0,0,0,0,0,0,0,0,0,0,0,0,0,0,0,0,0,0,0,0,0,0,0,0,0,0,0,0,0,0,0,0,0,0,0,0,0,0,0,0],"id":16,"left_children":[1,3,5,7,9,11,13,15,17,19,21,23,-1,25,27,29,31,33,35,37,39,41,43,-1,45,47,49,51,-1,-1,-1,-1,-1,-1,-1,-1,-1,-1,-1,-1,-1,-1,-1,-1,-1,-1,-1,-1,-1,-1,-1,-1,-1],"loss_changes":[9.634417E0,2.3741736E0,1.3297005E0,5.181463E-1,4.8284358E-1,4.5016295E-1,1.0878325E0,1.5471053E-1,9.9761665E-2,4.1951394E-1,1.670232E-1,2.8007364E-1,0E0,8.70656E-1,9.24767E-1,1.8005129E-2,5.5116415E-2,8.646095E-2,1.622496E-1,5.2018657E-2,1.5030527E-1,1.1812495E-1,1.1702531E-1,0E0,6.446707E-2,3.928573E-1,2.2877541E-1,1.1427913E0,0E0,0E0,0E0,0E0,0E0,0E0,0E0,0E0,0E0,0E0,0E0,0E0,0E0,0E0,0E0,0E0,0E0,0E0,0E0,0E0,0E0,0E0,0E0,0E0,0E0],"parents":[2147483647,0,0,1,1,2,2,3,3,4,4,5,5,6,6,7,7,8,8,9,9,10,10,11,11,13,13,14,14,15,15,16,16,17,17,18,18,19,19,20,20,21,21,22,22,24,24,25,25,26,26,27,27],"right_children":[2,4,6,8,10,12,14,16,18,20,22,24,-1,26,28,30,32,34,36,38,40,42,44,-1,46,48,50,52,-1,-1,-1,-1,-1,-1,-1,-1,-1,-1,-1,-1,-1,-1,-1,-1,-1,-1,-1,-1,-1,-1,-1,-1,-1],"split_conditions":[8.8E-1,4.3E-1,1.0853866E1,2.5E-1,1.6992609E1,1.0495713E1,1.27E0,7.92E0,2.574608E1,5.5E-1,3E-1,1.9960667E1,-7.4665505E-3,1.7388409E1,1.9592731E1,6.849467E0,1.9296135E1,9.085988E0,1.1709688E1,4.2E-1,1.2819235E1,1.9960667E1,7.7E-1,1.9900432E-2,7.2E-1,2.1771082E1,2.1629978E1,1.6704155E1,5.0369143E-2,-9.734002E-4,3.1705995E-3,-4.4898144E-3,-6.0927724E-3,2.1885331E-4,-2.592555E-3,-3.5993375E-3,2.7559919E-3,2.77659E-3,-5.1158622E-5,8.521064E-3,4.0009646E-3,7.3014724E-4,-1.1192474E-2,-5.7927123E-4,6.8112905E-3,-3.9786162E-4,7.7024074E-3,3.3770896E-2,1.5487978E-2,-3.93997E-3,9.987371E-3,3.1348187E-2,-2.192074E-4],"split_indices":[0,0,5,0,5,5,0,5,3,0,2,3,0,5,5,5,5,5,5,1,5,3,0,0,1,3,5,5,0,0,0,0,0,0,0,0,0,0,0,0,0,0,0,0,0,0,0,0,0,0,0,0,0],"split_type":[0,0,0,0,0,0,0,0,0,0,0,0,0,0,0,0,0,0,0,0,0,0,0,0,0,0,0,0,0,0,0,0,0,0,0,0,0,0,0,0,0,0,0,0,0,0,0,0,0,0,0,0,0],"sum_hessian":[8.46E2,7.82E2,6.4E1,5.73E2,2.09E2,1.7E1,4.7E1,2.79E2,2.94E2,1.47E2,6.2E1,1.3E1,4E0,2.9E1,1.8E1,9E0,2.7E2,2.53E2,4.1E1,6.4E1,8.3E1,8E0,5.4E1,4E0,9E0,1.9E1,1E1,1.3E1,5E0,4E0,5E0,1.69E2,1.01E2,3.1E1,2.22E2,1.5E1,2.6E1,3.1E1,3.3E1,4.9E1,3.4E1,3E0,5E0,4.9E1,5E0,4E0,5E0,5E0,1.4E1,5E0,5E0,9E0,4E0],"tree_param":{"num_deleted":"0","num_feature":"7","num_nodes":"53","size_leaf_vector":"1"}},{"base_weights":[4.43361E-3,-3.579668E-2,1.4279416E-1,-7.4876435E-2,-6.9337552E-3,1.0053969E-1,4.4706428E-1,-6.3204706E-2,-1.1158665E-1,9.038031E-3,-7.288555E-2,1.4688043E-1,3.6068413E-2,2.536193E-1,5.533061E-1,-9.20219E-2,-5.1900733E-2,-8.9707114E-2,-1.2120345E-1,6.4303965E-4,1.8408763E-1,-7.300807E-3,-9.0852015E-2,1.1069723E-1,2.9150018E-1,8.6726874E-2,-7.5626865E-2,2.0362688E-2,-3.9322902E-3,6.656779E-1,3.8581753E-1,-4.705341E-3,-1.9913788E-3,2.6414057E-3,-2.7502156E-3,-5.0786748E-3,-1.8589542E-3,-6.5817833E-3,-4.6477146E-3,1.6709553E-3,-9.76519E-4,-6.565312E-4,3.4020796E-2,1.824518E-3,-3.0563583E-3,-7.1384185E-3,-3.9845016E-3,6.927899E-4,7.988506E-3,3.063084E-2,6.6528665E-3,1.4661667E-3,7.6419353E-3,-5.2569555E-3,4.5420523E-3,4.113E-2,1.711682E-2,7.7346163E-3,2.8913483E-2],"categories":[],"categories_nodes":[],"categories_segments":[],"categories_sizes":[],"default_left":[0,0,0,0,0,0,0,0,0,0,0,0,0,0,0,0,0,0,0,0,0,0,0,0,0,0,0,0,0,0,0,0,0,0,0,0,0,0,0,0,0,0,0,0,0,0,0,0,0,0,0,0,0,0,0,0,0,0,0],"id":17,"left_children":[1,3,5,7,9,11,13,15,17,19,21,23,25,27,29,31,33,35,37,39,41,43,45,47,49,51,53,-1,-1,55,57,-1,-1,-1,-1,-1,-1,-1,-1,-1,-1,-1,-1,-1,-1,-1,-1,-1,-1,-1,-1,-1,-1,-1,-1,-1,-1,-1,-1],"loss_changes":[4.719755E0,7.4054796E-1,2.4106965E0,1.1249077E-1,3.9988518E-1,4.9961448E-1,3.32366E-1,6.4934194E-2,3.014326E-3,4.495608E-1,8.653286E-2,4.8054647E-1,4.1395727E-1,5.425026E-1,6.6637993E-3,2.6723444E-3,5.361107E-2,1.1183187E-2,4.361272E-4,1.9438584E-1,1.3793242E0,4.230157E-2,2.2233158E-2,3.7796932E-1,8.8518083E-1,1.852709E-1,1.2254627E-1,0E0,0E0,7.3569775E-2,2.6639044E-1,0E0,0E0,0E0,0E0,0E0,0E0,0E0,0E0,0E0,0E0,0E0,0E0,0E0,0E0,0E0,0E0,0E0,0E0,0E0,0E0,0E0,0E0,0E0,0E0,0E0,0E0,0E0,0E0],"parents":[2147483647,0,0,1,1,2,2,3,3,4,4,5,5,6,6,7,7,8,8,9,9,10,10,11,11,12,12,13,13,14,14,15,15,16,16,17,17,18,18,19,19,20,20,21,21,22,22,23,23,24,24,25,25,26,26,29,29,30,30],"right_children":[2,4,6,8,10,12,14,16,18,20,22,24,26,28,30,32,34,36,38,40,42,44,46,48,50,52,54,-1,-1,56,58,-1,-1,-1,-1,-1,-1,-1,-1,-1,-1,-1,-1,-1,-1,-1,-1,-1,-1,-1,-1,-1,-1,-1,-1,-1,-1,-1,-1],"split_conditions":[5.5E-1,2.5E-1,1.27E0,2.1313093E1,2.8602078E2,1.9862167E2,1.02556366E2,2E-1,2.4261421E2,2.7765646E2,1.0163227E1,9.3E-1,2.0247398E1,4E-1,1.88E0,3.2360306E2,2.1317911E1,2.915778E1,3.0178717E2,1.24811535E1,2.12522E1,3.229141E2,2.9471576E2,6.3E-1,7E-1,2.5300908E2,2.8583183E1,2.0362688E-2,-3.9322902E-3,1.14E0,2E0,-4.705341E-3,-1.9913788E-3,2.6414057E-3,-2.7502156E-3,-5.0786748E-3,-1.8589542E-3,-6.5817833E-3,-4.6477146E-3,1.6709553E-3,-9.76519E-4,-6.565312E-4,3.4020796E-2,1.824518E-3,-3.0563583E-3,-7.1384185E-3,-3.9845016E-3,6.927899E-4,7.988506E-3,3.063084E-2,6.6528665E-3,1.4661667E-3,7.6419353E-3,-5.2569555E-3,4.5420523E-3,4.113E-2,1.711682E-2,7.7346163E-3,2.8913483E-2],"split_indices":[1,1,1,5,6,6,6,1,6,6,5,2,5,4,1,6,6,5,6,5,5,6,6,1,1,6,5,0,0,2,2,0,0,0,0,0,0,0,0,0,0,0,0,0,0,0,0,0,0,0,0,0,0,0,0,0,0,0,0],"split_type":[0,0,0,0,0,0,0,0,0,0,0,0,0,0,0,0,0,0,0,0,0,0,0,0,0,0,0,0,0,0,0,0,0,0,0,0,0,0,0,0,0,0,0,0,0,0,0,0,0,0,0,0,0,0,0,0,0,0,0],"sum_hessian":[8.46E2,6.56E2,1.9E2,2.78E2,3.78E2,1.68E2,2.2E1,2.13E2,6.5E1,3.05E2,7.3E1,9.7E1,7.1E1,9E0,1.3E1,5.8E1,1.55E2,2.3E1,4.2E1,2.92E2,1.3E1,1.6E1,5.7E1,7.9E1,1.8E1,4.9E1,2.2E1,6E0,3E0,6E0,7E0,5.5E1,3E0,4E0,1.51E2,1.8E1,5E0,2.8E1,1.4E1,1.11E2,1.81E2,1E1,3E0,9E0,7E0,8E0,4.9E1,2.7E1,5.2E1,5E0,1.3E1,2.7E1,2.2E1,1.9E1,3E0,3E0,3E0,4E0,3E0],"tree_param":{"num_deleted":"0","num_feature":"7","num_nodes":"59","size_leaf_vector":"1"}},{"base_weights":[8.141343E-4,-4.703321E-2,1.9385825E-1,-7.5096175E-2,2.0138074E-3,1.4561808E-1,4.283744E-1,-5.8277126E-2,-1.0902631E-1,3.3487555E-2,-2.0967128E-2,2.930941E-1,1.3132456E-1,5.291397E-1,-8.056357E-3,-7.71129E-2,-2.2741389E-2,-8.391987E-2,-1.2707193E-1,1.911444E-2,1.2862743E-1,1.5503932E-2,-5.3896334E-2,9.515503E-2,3.3259176E-2,-8.04168E-3,1.4155123E-1,3.814319E-1,4.2723477E-2,4.8722326E-5,-4.00128E-3,-1.8209232E-3,2.5099928E-3,-4.7881356E-3,-1.9424539E-3,-7.0476243E-3,-4.2366697E-3,-3.3452895E-3,1.2832654E-3,2.6730932E-3,1.5158794E-2,-1.054667E-3,3.3111658E-3,-1.3642398E-3,-3.7461182E-3,1.5484727E-3,7.01548E-3,6.1913193E-3,1.5276334E-2,2.688383E-2,1.8386471E-3],"categories":[],"categories_nodes":[],"categories_segments":[],"categories_sizes":[],"default_left":[0,0,0,0,0,0,0,0,0,0,0,0,0,0,0,0,0,0,0,0,0,0,0,0,0,0,0,0,0,0,0,0,0,0,0,0,0,0,0,0,0,0,0,0,0,0,0,0,0,0,0],"id":18,"left_children":[1,3,5,7,9,11,13,15,17,19,21,23,25,27,-1,29,31,33,35,37,39,41,43,45,-1,-1,47,49,-1,-1,-1,-1,-1,-1,-1,-1,-1,-1,-1,-1,-1,-1,-1,-1,-1,-1,-1,-1,-1,-1,-1],"loss_changes":[8.045002E0,9.608818E-1,1.8947878E0,2.4702477E-1,1.8514265E-1,2.6716232E-1,1.8078966E0,1.9838E-1,5.5482984E-2,1.4522664E-1,1.7857814E-1,8.205167E-1,4.231317E-1,8.75422E-1,0E0,4.442966E-2,1.0657862E-1,3.0440748E-2,3.683424E-2,5.5250324E-2,1.6747211E-1,1.3318644E-1,4.1599482E-2,2.173914E-2,0E0,0E0,3.4000492E-1,1.0033996E0,0E0,0E0,0E0,0E0,0E0,0E0,0E0,0E0,0E0,0E0,0E0,0E0,0E0,0E0,0E0,0E0,0E0,0E0,0E0,0E0,0E0,0E0,0E0],"parents":[2147483647,0,0,1,1,2,2,3,3,4,4,5,5,6,6,7,7,8,8,9,9,10,10,11,11,12,12,13,13,15,15,16,16,17,17,18,18,19,19,20,20,21,21,22,22,23,23,26,26,27,27],"right_children":[2,4,6,8,10,12,14,16,18,20,22,24,26,28,-1,30,32,34,36,38,40,42,44,46,-1,-1,48,50,-1,-1,-1,-1,-1,-1,-1,-1,-1,-1,-1,-1,-1,-1,-1,-1,-1,-1,-1,-1,-1,-1,-1],"split_conditions":[6E-1,3.2E-1,1.2E0,1.9862083E1,1.2819235E1,1.5364833E1,2.30653E1,2.8E-1,2.5300908E2,5.1E-1,2.1147282E2,1.4902332E1,1.5989835E1,1.9592731E1,-8.056357E-3,7.42159E0,2.4910666E1,4.2999997E0,3.0695474E2,1.2762752E1,1.993899E2,1.7709658E1,2.688044E2,7E-1,3.3259176E-2,-8.04168E-3,2.2104116E1,1.6704155E1,4.2723477E-2,4.8722326E-5,-4.00128E-3,-1.8209232E-3,2.5099928E-3,-4.7881356E-3,-1.9424539E-3,-7.0476243E-3,-4.2366697E-3,-3.3452895E-3,1.2832654E-3,2.6730932E-3,1.5158794E-2,-1.054667E-3,3.3111658E-3,-1.3642398E-3,-3.7461182E-3,1.5484727E-3,7.01548E-3,6.1913193E-3,1.5276334E-2,2.688383E-2,1.8386471E-3],"split_indices":[0,0,0,5,5,3,5,0,6,0,6,3,3,5,0,5,3,4,6,3,6,5,6,0,0,0,5,5,0,0,0,0,0,0,0,0,0,0,0,0,0,0,0,0,0,0,0,0,0,0,0],"split_type":[0,0,0,0,0,0,0,0,0,0,0,0,0,0,0,0,0,0,0,0,0,0,0,0,0,0,0,0,0,0,0,0,0,0,0,0,0,0,0,0,0,0,0,0,0,0,0,0,0,0,0],"sum_hessian":[8.69E2,6.97E2,1.72E2,4.43E2,2.54E2,1.44E2,2.8E1,2.98E2,1.45E2,1.07E2,1.47E2,1.1E1,1.33E2,2.4E1,4E0,1.94E2,1.04E2,6.3E1,8.2E1,9.4E1,1.3E1,7E1,7.7E1,8E0,3E0,4E0,1.29E2,1.8E1,6E0,7E0,1.87E2,8.8E1,1.6E1,4.9E1,1.4E1,6E1,2.2E1,6E0,8.8E1,1E1,3E0,4.1E1,2.9E1,3.5E1,4.2E1,4E0,4E0,1.18E2,1.1E1,1.2E1,6E0],"tree_param":{"num_deleted":"0","num_feature":"7","num_nodes":"51","size_leaf_vector":"1"}},{"base_weights":[1.5638154E-3,-2.260519E-2,1.1307855E-1,-4.8908442E-2,1.9543782E-2,7.8488335E-2,2.8704092E-1,-2.5900504E-2,-7.02674E-2,3.6903434E-2,-6.65472E-2,1.04764014E-1,-7.914792E-2,3.804285E-1,-3.6045592E-3,-5.981002E-2,1.2337157E-2,-4.614192E-2,-1.0106123E-1,2.6601052E-2,2.0597052E-2,3.0524104E-3,-1.1139882E-1,1.2487337E-1,7.0227436E-3,4.055031E-3,-1.1426331E-1,4.550842E-1,-1.598271E-3,-3.2387578E-3,-4.1661953E-4,-1.1919476E-3,3.5994337E-3,-1.3731379E-3,-3.446357E-3,-5.655571E-3,-2.7145946E-3,2.3057717E-3,-9.135723E-4,-4.618318E-3,1.3358163E-3,-6.155591E-3,-5.171459E-4,5.5597755E-3,1.9899381E-2,2.7463872E-3,-9.91646E-3,-3.067584E-3,-7.975299E-3,1.3404301E-2,2.9575875E-2],"categories":[],"categories_nodes":[],"categories_segments":[],"categories_sizes":[],"default_left":[0,0,0,0,0,0,0,0,0,0,0,0,0,0,0,0,0,0,0,0,0,0,0,0,0,0,0,0,0,0,0,0,0,0,0,0,0,0,0,0,0,0,0,0,0,0,0,0,0,0,0],"id":19,"left_children":[1,3,5,7,9,11,13,15,17,19,21,23,25,27,-1,29,31,33,35,37,-1,39,41,43,45,-1,47,49,-1,-1,-1,-1,-1,-1,-1,-1,-1,-1,-1,-1,-1,-1,-1,-1,-1,-1,-1,-1,-1,-1,-1],"loss_changes":[2.3150377E0,7.836663E-1,8.981322E-1,2.1195018E-1,4.0896246E-1,5.426098E-1,8.658874E-1,2.7432483E-1,1.6249299E-1,8.661203E-1,1.4393619E-1,2.1729505E-1,1.1618343E-1,6.302984E-1,0E0,2.8086722E-2,2.1751212E-1,5.2585006E-2,4.908967E-2,1.9523887E-1,0E0,4.5369342E-2,3.1869322E-2,2.9942274E-1,2.0764148E-1,0E0,2.851586E-2,2.7513957E-1,0E0,0E0,0E0,0E0,0E0,0E0,0E0,0E0,0E0,0E0,0E0,0E0,0E0,0E0,0E0,0E0,0E0,0E0,0E0,0E0,0E0,0E0,0E0],"parents":[2147483647,0,0,1,1,2,2,3,3,4,4,5,5,6,6,7,7,8,8,9,9,10,10,11,11,12,12,13,13,15,15,16,16,17,17,18,18,19,19,21,21,22,22,23,23,24,24,26,26,27,27],"right_children":[2,4,6,8,10,12,14,16,18,20,22,24,26,28,-1,30,32,34,36,38,-1,40,42,44,46,-1,48,50,-1,-1,-1,-1,-1,-1,-1,-1,-1,-1,-1,-1,-1,-1,-1,-1,-1,-1,-1,-1,-1,-1,-1],"split_conditions":[6.3E-1,3.1E-1,1.27E0,1.9130986E2,2.794147E2,2.9201736E2,2.290743E1,1.8658583E1,1.98E1,2.7404318E2,1.7462782E1,2.0247398E1,1.1384198E1,8.000001E-1,-3.6045592E-3,4.7E0,1.4113653E1,2.9781104E2,3.0695474E2,1.6704155E1,2.0597052E-2,1.2762752E1,3.0746078E1,2.837331E2,2.6523169E1,4.055031E-3,8E-1,1.01996826E2,-1.598271E-3,-3.2387578E-3,-4.1661953E-4,-1.1919476E-3,3.5994337E-3,-1.3731379E-3,-3.446357E-3,-5.655571E-3,-2.7145946E-3,2.3057717E-3,-9.135723E-4,-4.618318E-3,1.3358163E-3,-6.155591E-3,-5.171459E-4,5.5597755E-3,1.9899381E-2,2.7463872E-3,-9.91646E-3,-3.067584E-3,-7.975299E-3,1.3404301E-2,2.9575875E-2],"split_indices":[1,1,1,6,6,6,5,3,5,6,5,5,5,4,0,4,5,6,6,5,0,3,3,6,3,0,1,6,0,0,0,0,0,0,0,0,0,0,0,0,0,0,0,0,0,0,0,0,0,0,0],"split_type":[0,0,0,0,0,0,0,0,0,0,0,0,0,0,0,0,0,0,0,0,0,0,0,0,0,0,0,0,0,0,0,0,0,0,0,0,0,0,0,0,0,0,0,0,0,0,0,0,0,0,0],"sum_hessian":[8.57E2,7.05E2,1.52E2,4.34E2,2.71E2,1.28E2,2.4E1,2.1E2,2.24E2,2.26E2,4.5E1,1.1E2,1.8E1,1.9E1,5E0,1.11E2,9.9E1,1.27E2,9.7E1,2.21E2,5E0,1.8E1,2.7E1,9.1E1,1.9E1,3E0,1.5E1,1.6E1,3E0,1.01E2,1E1,6.2E1,3.7E1,7.1E1,5.6E1,7.6E1,2.1E1,1.54E2,6.7E1,3E0,1.5E1,2.4E1,3E0,8.8E1,3E0,1.6E1,3E0,8E0,7E0,8E0,8E0],"tree_param":{"num_deleted":"0","num_feature":"7","num_nodes":"51","size_leaf_vector":"1"}},{"base_weights":[2.5187593E-3,-7.355447E-3,3.267516E-1,-6.727461E-2,2.3573332E-2,4.2428884E-1,-3.4543704E-3,-5.658394E-2,-9.785961E-2,4.797889E-2,-1.8110644E-2,2.7756754E-1,4.1914172E-2,-6.2317856E-2,-2.255086E-2,-1.0019472E-1,-1.5973287E-3,6.2784874E-3,7.594545E-2,-4.0743873E-2,6.076865E-2,5.095625E-1,-4.7122113E-2,-4.335941E-3,-2.5839345E-3,-2.470902E-3,9.229534E-3,-2.1208357E-3,-5.150554E-3,-1.9404608E-3,1.2929246E-3,3.1305559E-3,8.274265E-3,-1.988292E-4,-4.139021E-3,3.0644307E-2,4.5975237E-4,1.3051706E-2,2.8939206E-2,-4.4205035E-3,8.134179E-4],"categories":[],"categories_nodes":[],"categories_segments":[],"categories_sizes":[],"default_left":[0,0,0,0,0,0,0,0,0,0,0,0,0,0,0,0,0,0,0,0,0,0,0,0,0,0,0,0,0,0,0,0,0,0,0,0,0,0,0,0,0],"id":20,"left_children":[1,3,5,7,9,11,-1,13,15,17,19,21,-1,23,25,27,-1,29,31,33,35,37,39,-1,-1,-1,-1,-1,-1,-1,-1,-1,-1,-1,-1,-1,-1,-1,-1,-1,-1],"loss_changes":[2.8165584E0,1.5842414E0,1.0331483E0,8.9612246E-2,5.746377E-1,1.0428982E0,0E0,4.1135788E-2,8.1887245E-3,4.1469646E-1,3.756022E-1,1.3045597E0,0E0,4.3805182E-2,1.9277729E-1,7.1840286E-3,0E0,1.2812924E-1,2.439512E-1,2.5159875E-1,1.3326747E0,2.095294E-2,2.237639E-2,0E0,0E0,0E0,0E0,0E0,0E0,0E0,0E0,0E0,0E0,0E0,0E0,0E0,0E0,0E0,0E0,0E0,0E0],"parents":[2147483647,0,0,1,1,2,2,3,3,4,4,5,5,7,7,8,8,9,9,10,10,11,11,13,13,14,14,15,15,17,17,18,18,19,19,20,20,21,21,22,22],"right_children":[2,4,6,8,10,12,-1,14,16,18,20,22,-1,24,26,28,-1,30,32,34,36,38,40,-1,-1,-1,-1,-1,-1,-1,-1,-1,-1,-1,-1,-1,-1,-1,-1,-1,-1],"split_conditions":[1.27E0,2.5E-1,2.290743E1,2.1313093E1,1.692383E1,1.9592731E1,-3.4543704E-3,2.2808586E1,3.0472675E1,4E-1,2.452733E1,1E-1,4.1914172E-2,2E-1,4E-1,1.1710668E1,-1.5973287E-3,1.4902332E1,2.7212748E1,2.4959767E2,2.4858582E1,9.045471E1,2.02E0,-4.335941E-3,-2.5839345E-3,-2.470902E-3,9.229534E-3,-2.1208357E-3,-5.150554E-3,-1.9404608E-3,1.2929246E-3,3.1305559E-3,8.274265E-3,-1.988292E-4,-4.139021E-3,3.0644307E-2,4.5975237E-4,1.3051706E-2,2.8939206E-2,-4.4205035E-3,8.134179E-4],"split_indices":[1,1,5,5,5,5,0,3,5,1,3,4,0,1,4,3,0,3,3,6,3,6,1,0,0,0,0,0,0,0,0,0,0,0,0,0,0,0,0,0,0],"split_type":[0,0,0,0,0,0,0,0,0,0,0,0,0,0,0,0,0,0,0,0,0,0,0,0,0,0,0,0,0,0,0,0,0,0,0,0,0,0,0,0,0],"sum_hessian":[8.78E2,8.53E2,2.5E1,2.9E2,5.63E2,2E1,5E0,2.17E2,7.3E1,3.55E2,2.08E2,1.6E1,4E0,1.85E2,3.2E1,7E1,3E0,1.43E2,2.12E2,1.62E2,4.6E1,9E0,7E0,5.4E1,1.31E2,2.9E1,3E0,4E0,6.6E1,4.3E1,1E2,1.86E2,2.6E1,8.7E1,7.5E1,3E0,4.3E1,3E0,6E0,4E0,3E0],"tree_param":{"num_deleted":"0","num_feature":"7","num_nodes":"41","size_leaf_vector":"1"}},{"base_weights":[5.916375E-3,-6.0978644E-3,3.2148072E-1,-2.5837192E-2,7.554459E-2,3.9221317E-1,-2.5197703E-3,-6.1648466E-2,-9.4599125E-4,8.5251585E-2,-3.4548365E-2,2.883382E-1,3.9579768E-2,-5.1612608E-2,-9.507857E-2,-1.6548926E-2,5.3154692E-2,7.505392E-2,2.2062605E-2,-1.1765031E-1,6.928259E-3,4.0450796E-1,-3.4979492E-2,-2.9405903E-3,-1.1066841E-3,-4.88913E-3,-1.537429E-3,7.449041E-4,-2.7150835E-3,1.6147396E-2,1.3255054E-3,4.681202E-3,-3.9379994E-4,-3.0975796E-3,-7.222876E-3,3.3579224E-3,2.5157088E-2,-3.8436202E-3,7.8291446E-4],"categories":[],"categories_nodes":[],"categories_segments":[],"categories_sizes":[],"default_left":[0,0,0,0,0,0,0,0,0,0,0,0,0,0,0,0,0,0,0,0,0,0,0,0,0,0,0,0,0,0,0,0,0,0,0,0,0,0,0],"id":21,"left_children":[1,3,5,7,9,11,-1,13,15,17,19,21,-1,23,25,27,29,31,-1,33,-1,35,37,-1,-1,-1,-1,-1,-1,-1,-1,-1,-1,-1,-1,-1,-1,-1,-1],"loss_changes":[3.307944E0,1.3572798E0,8.614843E-1,6.0430115E-1,1.7820758E-1,8.9187E-1,0E0,8.836162E-2,3.3937556E-1,5.150684E-1,2.1770725E-1,8.7802327E-1,0E0,4.4538736E-2,7.952213E-3,3.7121877E-1,6.3840616E-1,2.286601E-1,0E0,5.9818923E-3,0E0,5.3186893E-1,1.6053237E-2,0E0,0E0,0E0,0E0,0E0,0E0,0E0,0E0,0E0,0E0,0E0,0E0,0E0,0E0,0E0,0E0],"parents":[2147483647,0,0,1,1,2,2,3,3,4,4,5,5,7,7,8,8,9,9,10,10,11,11,13,13,14,14,15,15,16,16,17,17,19,19,21,21,22,22],"right_children":[2,4,6,8,10,12,-1,14,16,18,20,22,-1,24,26,28,30,32,-1,34,-1,36,38,-1,-1,-1,-1,-1,-1,-1,-1,-1,-1,-1,-1,-1,-1,-1,-1],"split_conditions":[1.2E0,5.5E-1,2.30653E1,2.5E-1,2.457511E1,1.9592731E1,-2.5197703E-3,2.1578989E1,2.448775E1,2.3469128E1,2.9795301E1,1E-1,3.9579768E-2,2.1691916E1,3.0886656E1,1.6327497E1,2.46065E1,1.7935081E1,2.2062605E-2,2.6208395E1,6.928259E-3,1.27E0,2E0,-2.9405903E-3,-1.1066841E-3,-4.88913E-3,-1.537429E-3,7.449041E-4,-2.7150835E-3,1.6147396E-2,1.3255054E-3,4.681202E-3,-3.9379994E-4,-3.0975796E-3,-7.222876E-3,3.3579224E-3,2.5157088E-2,-3.8436202E-3,7.8291446E-4],"split_indices":[1,1,5,1,5,5,0,5,3,5,5,4,0,3,5,5,3,5,0,5,0,1,1,0,0,0,0,0,0,0,0,0,0,0,0,0,0,0,0],"split_type":[0,0,0,0,0,0,0,0,0,0,0,0,0,0,0,0,0,0,0,0,0,0,0,0,0,0,0,0,0,0,0,0,0,0,0,0,0,0,0],"sum_hessian":[8.71E2,8.4E2,3.1E1,6.77E2,1.63E2,2.6E1,5E0,2.77E2,4E2,1.5E2,1.3E1,2.2E1,4E0,2.15E2,6.2E1,3.11E2,8.9E1,1.47E2,3E0,9E0,4E0,1.6E1,6E0,1.72E2,4.3E1,5.9E1,3E0,1.7E2,1.41E2,7E0,8.2E1,1.2E2,2.7E1,4E0,5E0,4E0,1.2E1,3E0,3E0],"tree_param":{"num_deleted":"0","num_feature":"7","num_nodes":"39","size_leaf_vector":"1"}},{"base_weights":[1.677545E-3,-8.475676E-3,3.0113766E-1,-2.7112782E-2,6.74968E-2,3.6929682E-1,-1.0007069E-2,-4.107613E-2,4.7616646E-2,9.753472E-2,-3.0509297E-2,2.7664676E-1,3.422838E-2,-2.4716198E-2,-6.53244E-2,2.0545853E-2,2.5342455E-2,1.6990805E-1,6.273858E-2,-8.825005E-2,3.4915183E-2,3.538033E-1,-6.985967E-3,-2.3483173E-3,7.8461824E-5,-1.9951852E-3,-4.600577E-3,2.3087258E-3,-3.0147254E-3,1.0251307E-2,-3.1632707E-3,4.6839323E-3,-4.17038E-4,1.064627E-4,-8.530331E-3,8.180975E-3,-4.8640333E-3,1.2225504E-2,2.9453183E-2],"categories":[],"categories_nodes":[],"categories_segments":[],"categories_sizes":[],"default_left":[0,0,0,0,0,0,0,0,0,0,0,0,0,0,0,0,0,0,0,0,0,0,0,0,0,0,0,0,0,0,0,0,0,0,0,0,0,0,0],"id":22,"left_children":[1,3,5,7,9,11,-1,13,15,17,19,21,-1,23,25,-1,27,29,31,33,35,37,-1,-1,-1,-1,-1,-1,-1,-1,-1,-1,-1,-1,-1,-1,-1,-1,-1],"loss_changes":[2.5960858E0,1.1713691E0,1.0305808E0,6.948223E-1,4.8283136E-1,5.408628E-1,0E0,2.2053748E-1,8.3926976E-1,3.0412924E-1,1.5040995E-1,7.240658E-1,0E0,1.9658491E-1,1.4896965E-1,0E0,1.8118352E-1,3.4051526E-1,1.899125E-1,1.5667318E-1,3.3918637E-1,3.1879044E-1,0E0,0E0,0E0,0E0,0E0,0E0,0E0,0E0,0E0,0E0,0E0,0E0,0E0,0E0,0E0,0E0,0E0],"parents":[2147483647,0,0,1,1,2,2,3,3,4,4,5,5,7,7,8,8,9,9,10,10,11,11,13,13,14,14,16,16,17,17,18,18,19,19,20,20,21,21],"right_children":[2,4,6,8,10,12,-1,14,16,18,20,22,-1,24,26,-1,28,30,32,34,36,38,-1,-1,-1,-1,-1,-1,-1,-1,-1,-1,-1,-1,-1,-1,-1,-1,-1],"split_conditions":[1.2E0,5.5E-1,2.5932495E1,2.448775E1,2.658151E2,2.1862406E1,-1.0007069E-2,1.7709658E1,2.46065E1,2.110025E1,7.5E-1,5E-1,3.422838E-2,3E-1,2.6503033E2,2.0545853E-2,2.3436156E2,3.8E0,1.977342E2,1.7935081E1,2.2199188E1,2.13E0,-6.985967E-3,-2.3483173E-3,7.8461824E-5,-1.9951852E-3,-4.600577E-3,2.3087258E-3,-3.0147254E-3,1.0251307E-2,-3.1632707E-3,4.6839323E-3,-4.17038E-4,1.064627E-4,-8.530331E-3,8.180975E-3,-4.8640333E-3,1.2225504E-2,2.9453183E-2],"split_indices":[1,1,5,3,6,5,0,5,3,3,1,4,0,1,6,0,6,4,6,5,5,1,0,0,0,0,0,0,0,0,0,0,0,0,0,0,0,0,0],"split_type":[0,0,0,0,0,0,0,0,0,0,0,0,0,0,0,0,0,0,0,0,0,0,0,0,0,0,0,0,0,0,0,0,0,0,0,0,0,0,0],"sum_hessian":[8.52E2,8.25E2,2.7E1,6.63E2,1.62E2,2.4E1,3E0,5.59E2,1.04E2,1.24E2,3.8E1,2E1,4E0,3.35E2,2.24E2,5E0,9.9E1,3.9E1,8.5E1,2E1,1.8E1,1.7E1,3E0,1.81E2,1.54E2,1.16E2,1.08E2,8E1,1.9E1,3.4E1,5E0,5.9E1,2.6E1,1E1,1E1,9E0,9E0,1.3E1,4E0],"tree_param":{"num_deleted":"0","num_feature":"7","num_nodes":"39","size_leaf_vector":"1"}},{"base_weights":[3.7342291E-3,-4.0258076E-2,1.7267318E-1,-5.8277726E-2,1.0494075E-2,1.2956558E-1,4.0513757E-1,-7.536906E-2,-4.2056333E-2,3.9829876E-2,-2.7301203E-2,1.01488195E-1,2.7150849E-1,4.5508847E-1,-4.169941E-4,-5.889075E-2,-8.651447E-2,-3.5885762E-2,-1.2542222E-1,-3.1246114E-4,5.8491983E-2,-9.2869714E-2,-1.567087E-2,3.298749E-1,7.5685546E-2,2.0800121E-1,2.7646068E-2,5.617985E-1,2.6820308E-1,-3.0705852E-3,9.7430125E-4,-4.5940294E-3,-2.3922801E-3,-9.786629E-4,-2.6284812E-3,-7.0707165E-3,-1.7048129E-3,-2.6138017E-3,1.3406277E-3,1.9358397E-3,4.9039302E-3,-1.7746637E-3,-5.8560637E-3,4.4884114E-4,-3.3214097E-3,4.978803E-3,4.115767E-2,-1.0317094E-2,4.3644737E-3,7.322002E-3,2.2420822E-2,3.731018E-2,2.134527E-2,-1.3367728E-3,2.5922054E-2],"categories":[],"categories_nodes":[],"categories_segments":[],"categories_sizes":[],"default_left":[0,0,0,0,0,0,0,0,0,0,0,0,0,0,0,0,0,0,0,0,0,0,0,0,0,0,0,0,0,0,0,0,0,0,0,0,0,0,0,0,0,0,0,0,0,0,0,0,0,0,0,0,0,0,0],"id":23,"left_children":[1,3,5,7,9,11,13,15,17,19,21,23,25,27,-1,29,31,33,35,37,39,41,43,45,47,49,-1,51,53,-1,-1,-1,-1,-1,-1,-1,-1,-1,-1,-1,-1,-1,-1,-1,-1,-1,-1,-1,-1,-1,-1,-1,-1,-1,-1],"loss_changes":[6.547124E0,6.398721E-1,1.7713261E0,1.3988888E-1,2.0509829E-1,5.9018016E-1,5.8209467E-1,4.0819407E-2,1.328479E-1,7.79289E-2,6.0313925E-2,7.470139E-1,3.3178568E-1,3.47888E-1,0E0,2.1745384E-2,2.6106715E-2,6.7009926E-2,2.1467209E-2,4.9325086E-2,5.178386E-2,1.2540594E-2,8.816988E-2,1.3948528E0,4.074539E-1,2.5993907E-1,0E0,5.4566383E-2,8.2571393E-1,0E0,0E0,0E0,0E0,0E0,0E0,0E0,0E0,0E0,0E0,0E0,0E0,0E0,0E0,0E0,0E0,0E0,0E0,0E0,0E0,0E0,0E0,0E0,0E0,0E0,0E0],"parents":[2147483647,0,0,1,1,2,2,3,3,4,4,5,5,6,6,7,7,8,8,9,9,10,10,11,11,12,12,13,13,15,15,16,16,17,17,18,18,19,19,20,20,21,21,22,22,23,23,24,24,25,25,27,27,28,28],"right_children":[2,4,6,8,10,12,14,16,18,20,22,24,26,28,-1,30,32,34,36,38,40,42,44,46,48,50,-1,52,54,-1,-1,-1,-1,-1,-1,-1,-1,-1,-1,-1,-1,-1,-1,-1,-1,-1,-1,-1,-1,-1,-1,-1,-1,-1,-1],"split_conditions":[6E-1,3.9E-1,1.27E0,2.2E-1,4.2E-1,8.8E-1,3.0501627E2,1.5629733E2,5.1E-1,3E-1,3.5E-1,3.5E-1,1.42E0,1E-1,-4.169941E-4,6.2E0,3.2442944E2,1.8444403E2,1E-1,1.5751141E2,5E-1,4.6E-1,6.5E-1,2.636728E2,2.2E-1,1.2E0,2.7646068E-2,8E-1,2.371205E2,-3.0705852E-3,9.7430125E-4,-4.5940294E-3,-2.3922801E-3,-9.786629E-4,-2.6284812E-3,-7.0707165E-3,-1.7048129E-3,-2.6138017E-3,1.3406277E-3,1.9358397E-3,4.9039302E-3,-1.7746637E-3,-5.8560637E-3,4.4884114E-4,-3.3214097E-3,4.978803E-3,4.115767E-2,-1.0317094E-2,4.3644737E-3,7.322002E-3,2.2420822E-2,3.731018E-2,2.134527E-2,-1.3367728E-3,2.5922054E-2],"split_indices":[0,0,0,0,1,2,6,6,1,2,2,1,1,4,0,4,6,6,4,6,0,1,1,6,2,4,0,1,6,0,0,0,0,0,0,0,0,0,0,0,0,0,0,0,0,0,0,0,0,0,0,0,0,0,0],"split_type":[0,0,0,0,0,0,0,0,0,0,0,0,0,0,0,0,0,0,0,0,0,0,0,0,0,0,0,0,0,0,0,0,0,0,0,0,0,0,0,0,0,0,0,0,0,0,0,0,0,0,0,0,0,0,0],"sum_hessian":[8.79E2,6.98E2,1.81E2,5.15E2,1.83E2,1.54E2,2.7E1,2.49E2,2.66E2,1.03E2,8E1,1.3E2,2.4E1,2.4E1,3E0,1.03E2,1.46E2,2.49E2,1.7E1,3.3E1,7E1,1.1E1,6.9E1,1.2E1,1.18E2,2.1E1,3E0,1.4E1,1E1,1E2,3E0,1.27E2,1.9E1,1.27E2,1.22E2,1.4E1,3E0,1.1E1,2.2E1,4.8E1,2.2E1,4E0,7E0,4.7E1,2.2E1,9E0,3E0,4E0,1.14E2,1.8E1,3E0,4E0,1E1,5E0,5E0],"tree_param":{"num_deleted":"0","num_feature":"7","num_nodes":"55","size_leaf_vector":"1"}},{"base_weights":[7.6611317E-4,-1.8766893E-2,3.4597412E-1,-4.895477E-2,5.704393E-2,4.091246E-1,-6.4310744E-2,-6.974338E-2,-2.7637102E-2,4.9711455E-2,1.8999794E-2,5.966529E-1,2.7274156E-1,-1.1899828E-2,6.2726378E-3,-6.439727E-2,-1.1302174E-1,-3.968807E-3,-3.902608E-2,-2.8626118E-2,6.311538E-2,7.12897E-3,3.4523573E-2,3.1964475E-1,1.0599887E-3,-4.672111E-3,-2.9001227E-3,-6.2836544E-3,-3.406629E-3,-1.3147988E-3,6.9443434E-3,-1.4325044E-4,-2.4023994E-3,3.7425276E-4,-8.449068E-3,-3.6970105E-3,3.5461735E-3,1.033247E-2,3.1995E-2],"categories":[],"categories_nodes":[],"categories_segments":[],"categories_sizes":[],"default_left":[0,0,0,0,0,0,0,0,0,0,0,0,0,0,0,0,0,0,0,0,0,0,0,0,0,0,0,0,0,0,0,0,0,0,0,0,0,0,0],"id":24,"left_children":[1,3,5,7,9,11,13,15,17,19,-1,21,23,-1,-1,25,27,29,31,33,35,-1,-1,37,-1,-1,-1,-1,-1,-1,-1,-1,-1,-1,-1,-1,-1,-1,-1],"loss_changes":[5.7919445E0,1.863398E0,1.2181573E0,2.5599432E-1,5.304942E-1,8.602948E-1,2.6057193E-1,6.0744762E-2,7.774727E-2,2.4121386E-1,0E0,5.8316183E-1,2.881763E-1,0E0,0E0,4.3614745E-2,9.04274E-3,3.0666065E-1,6.347948E-2,1.7359017E-1,2.1392184E-1,0E0,0E0,6.276994E-1,0E0,0E0,0E0,0E0,0E0,0E0,0E0,0E0,0E0,0E0,0E0,0E0,0E0,0E0,0E0],"parents":[2147483647,0,0,1,1,2,2,3,3,4,4,5,5,6,6,7,7,8,8,9,9,11,11,12,12,15,15,16,16,17,17,18,18,19,19,20,20,23,23],"right_children":[2,4,6,8,10,12,14,16,18,20,-1,22,24,-1,-1,26,28,30,32,34,36,-1,-1,38,-1,-1,-1,-1,-1,-1,-1,-1,-1,-1,-1,-1,-1,-1,-1],"split_conditions":[1.02E0,4.3E-1,2.9471576E2,2.8E-1,2.1E0,2.110025E1,1.58E0,4.4E-1,1.1195646E2,1.6023169E1,1.8999794E-2,1.8275251E1,7E-1,-1.1899828E-2,6.2726378E-3,1.5E-1,2.3018997E1,2.4171083E1,2.2E-1,1.5346086E1,2.2E-1,7.12897E-3,3.4523573E-2,1.48E0,1.0599887E-3,-4.672111E-3,-2.9001227E-3,-6.2836544E-3,-3.406629E-3,-1.3147988E-3,6.9443434E-3,-1.4325044E-4,-2.4023994E-3,3.7425276E-4,-8.449068E-3,-3.6970105E-3,3.5461735E-3,1.033247E-2,3.1995E-2],"split_indices":[0,0,6,0,2,3,0,2,6,3,0,3,4,0,0,0,3,3,2,3,2,0,0,0,0,0,0,0,0,0,0,0,0,0,0,0,0,0,0],"split_type":[0,0,0,0,0,0,0,0,0,0,0,0,0,0,0,0,0,0,0,0,0,0,0,0,0,0,0,0,0,0,0,0,0,0,0,0,0,0,0],"sum_hessian":[8.57E2,8.12E2,4.5E1,5.81E2,2.31E2,3.9E1,6E0,2.93E2,2.88E2,2.27E2,4E0,1.5E1,2.4E1,3E0,3E0,2.63E2,3E1,9.4E1,1.94E2,3.3E1,1.94E2,3E0,1.2E1,2E1,4E0,4.5E1,2.18E2,2.2E1,8E0,8.2E1,1.2E1,3.9E1,1.55E2,2.7E1,6E0,1E1,1.84E2,1.6E1,4E0],"tree_param":{"num_deleted":"0","num_feature":"7","num_nodes":"39","size_leaf_vector":"1"}},{"base_weights":[3.3036494E-3,-1.88359E-2,2.6730174E-1,-5.129525E-2,3.7512258E-2,1.6630493E-1,3.8968754E-1,-6.4176835E-2,-3.2729927E-2,5.359616E-2,-3.2663055E-2,3.357358E-1,7.8567676E-2,7.118226E-1,2.606976E-1,1.9932661E-2,-6.652533E-2,-2.2184016E-2,-9.1687E-2,4.3756742E-2,3.1405125E-2,4.045843E-2,-8.4852524E-2,-3.9227083E-4,4.395947E-1,1.415547E-1,-6.313468E-2,4.1728657E-2,1.9021448E-2,1.24972045E-1,2.2897026E-2,-1.0132984E-3,2.1704817E-3,-4.4515366E-3,-3.0321016E-3,-1.332775E-3,3.336478E-3,-5.264418E-3,-1.4034746E-3,2.630099E-3,-2.7864333E-3,1.1248019E-3,6.232319E-3,-2.051235E-3,-8.438933E-3,2.5979081E-2,9.485944E-3,2.7066536E-4,1.4611072E-2,-2.2898466E-4,-6.759174E-3,1.1628615E-2,-1.1453585E-2],"categories":[],"categories_nodes":[],"categories_segments":[],"categories_sizes":[],"default_left":[0,0,0,0,0,0,0,0,0,0,0,0,0,0,0,0,0,0,0,0,0,0,0,0,0,0,0,0,0,0,0,0,0,0,0,0,0,0,0,0,0,0,0,0,0,0,0,0,0,0,0,0,0],"id":25,"left_children":[1,3,5,7,9,11,13,15,17,19,21,23,25,27,29,31,33,35,37,39,-1,41,43,-1,45,47,49,-1,-1,51,-1,-1,-1,-1,-1,-1,-1,-1,-1,-1,-1,-1,-1,-1,-1,-1,-1,-1,-1,-1,-1,-1,-1],"loss_changes":[5.1367683E0,1.4852632E0,7.757125E-1,1.2106204E-1,3.3697245E-1,5.533726E-1,1.0609946E0,6.1178207E-2,1.3040006E-1,1.3404961E0,2.1713859E-1,4.6734035E-1,2.4992307E-1,7.9340935E-3,5.585011E-1,9.373419E-3,3.366065E-2,7.413747E-2,2.4733722E-2,2.1324468E-1,0E0,3.348916E-2,1.144598E-1,0E0,1.01293564E-1,3.881457E-1,3.7350252E-2,0E0,0E0,6.2470365E-1,0E0,0E0,0E0,0E0,0E0,0E0,0E0,0E0,0E0,0E0,0E0,0E0,0E0,0E0,0E0,0E0,0E0,0E0,0E0,0E0,0E0,0E0,0E0],"parents":[2147483647,0,0,1,1,2,2,3,3,4,4,5,5,6,6,7,7,8,8,9,9,10,10,11,11,12,12,13,13,14,14,15,15,16,16,17,17,18,18,19,19,21,21,22,22,24,24,25,25,26,26,29,29],"right_children":[2,4,6,8,10,12,14,16,18,20,22,24,26,28,30,32,34,36,38,40,-1,42,44,-1,46,48,50,-1,-1,52,-1,-1,-1,-1,-1,-1,-1,-1,-1,-1,-1,-1,-1,-1,-1,-1,-1,-1,-1,-1,-1,-1,-1],"split_conditions":[8.5E-1,3.9E-1,1.2E0,2.8E-1,2.794147E2,6.7E-1,9E-1,7.42159E0,2.2751316E1,2.7765646E2,1.7935081E1,1.0182337E1,1.3570615E1,2.3596513E2,2.1E0,6.6818557E0,1.5E-1,2.1862406E1,2.9795301E1,2.5744305E2,3.1405125E-2,3.3080243E2,5.6E-1,-3.9227083E-4,1.8053545E2,1.6552972E2,1.02E0,4.1728657E-2,1.9021448E-2,2.4855217E2,2.2897026E-2,-1.0132984E-3,2.1704817E-3,-4.4515366E-3,-3.0321016E-3,-1.332775E-3,3.336478E-3,-5.264418E-3,-1.4034746E-3,2.630099E-3,-2.7864333E-3,1.1248019E-3,6.232319E-3,-2.051235E-3,-8.438933E-3,2.5979081E-2,9.485944E-3,2.7066536E-4,1.4611072E-2,-2.2898466E-4,-6.759174E-3,1.1628615E-2,-1.1453585E-2],"split_indices":[0,0,0,0,6,1,1,5,5,6,5,5,5,6,0,5,0,5,5,6,0,6,1,0,6,6,0,0,0,6,0,0,0,0,0,0,0,0,0,0,0,0,0,0,0,0,0,0,0,0,0,0,0],"split_type":[0,0,0,0,0,0,0,0,0,0,0,0,0,0,0,0,0,0,0,0,0,0,0,0,0,0,0,0,0,0,0,0,0,0,0,0,0,0,0,0,0,0,0,0,0,0,0,0,0,0,0,0,0],"sum_hessian":[8.77E2,8.1E2,6.7E1,5.14E2,2.96E2,3.8E1,2.9E1,3.02E2,2.12E2,2.41E2,5.5E1,1.2E1,2.6E1,7E0,2.2E1,8E0,2.94E2,1.81E2,3.1E1,2.38E2,3E0,2.3E1,3.2E1,3E0,9E0,1.8E1,8E0,4E0,3E0,1.4E1,8E0,3E0,5E0,5.8E1,2.36E2,1.73E2,8E0,2.5E1,6E0,2.19E2,1.9E1,2E1,3E0,2.2E1,1E1,6E0,3E0,1E1,8E0,5E0,3E0,1.1E1,3E0],"tree_param":{"num_deleted":"0","num_feature":"7","num_nodes":"53","size_leaf_vector":"1"}},{"base_weights":[5.545246E-3,-3.47143E-2,1.658447E-1,-5.2545365E-2,-1.303765E-3,1.267021E-1,3.893693E-1,-5.5794228E-2,-8.97268E-3,1.7401172E-2,-2.774202E-2,-5.935259E-2,1.3783729E-1,1.8126494E-1,5.1602125E-1,-4.9052343E-2,-7.042224E-2,-6.575786E-2,3.334128E-2,5.471498E-3,6.2874354E-2,-4.3384377E-2,2.5832044E-2,1.3787315E-3,-8.745263E-3,2.4824744E-2,1.2353266E-1,2.9591656E-1,-4.6677273E-3,7.4933725E-3,2.9753536E-2,-2.6492642E-3,2.952515E-4,-3.954919E-3,-1.7518731E-3,-1.310864E-3,-5.0776564E-3,5.079056E-5,7.7153924E-3,-9.76633E-4,1.334841E-3,-2.2533187E-3,4.097376E-3,-4.49542E-3,-1.4853723E-3,-1.0872876E-4,6.354539E-3,4.092521E-3,1.0119969E-2,2.1953268E-2,2.1500706E-3],"categories":[],"categories_nodes":[],"categories_segments":[],"categories_sizes":[],"default_left":[0,0,0,0,0,0,0,0,0,0,0,0,0,0,0,0,0,0,0,0,0,0,0,0,0,0,0,0,0,0,0,0,0,0,0,0,0,0,0,0,0,0,0,0,0,0,0,0,0,0,0],"id":26,"left_children":[1,3,5,7,9,11,13,15,17,19,21,23,25,27,29,31,33,35,37,39,41,43,45,-1,-1,-1,47,49,-1,-1,-1,-1,-1,-1,-1,-1,-1,-1,-1,-1,-1,-1,-1,-1,-1,-1,-1,-1,-1,-1,-1],"loss_changes":[5.4977565E0,4.0563422E-1,1.4468012E0,6.2352657E-2,1.181799E-1,3.1272888E-1,5.653837E-1,3.727591E-2,7.908225E-2,7.56032E-2,8.408515E-2,9.522501E-2,6.5180135E-1,3.739664E-1,3.449824E-1,6.2130034E-2,3.652507E-2,1.7152667E-2,7.413897E-2,5.9962243E-2,6.339745E-2,4.6324596E-2,6.550242E-2,0E0,0E0,0E0,4.2722464E-1,2.7075553E-1,0E0,0E0,0E0,0E0,0E0,0E0,0E0,0E0,0E0,0E0,0E0,0E0,0E0,0E0,0E0,0E0,0E0,0E0,0E0,0E0,0E0,0E0,0E0],"parents":[2147483647,0,0,1,1,2,2,3,3,4,4,5,5,6,6,7,7,8,8,9,9,10,10,11,11,12,12,13,13,14,14,15,15,16,16,17,17,18,18,19,19,20,20,21,21,22,22,26,26,27,27],"right_children":[2,4,6,8,10,12,14,16,18,20,22,24,26,28,30,32,34,36,38,40,42,44,46,-1,-1,-1,48,50,-1,-1,-1,-1,-1,-1,-1,-1,-1,-1,-1,-1,-1,-1,-1,-1,-1,-1,-1,-1,-1,-1,-1],"split_conditions":[6E-1,3.2E-1,1.27E0,2.4910666E1,4.2E-1,2.7E-1,2.0598167E1,3E-1,2.7E-1,4.6E-1,5.1E-1,6.3E-1,3E-1,1.8860666E1,4.4E-1,2.8E-1,2.2260666E1,2.2E-1,7.2E-1,1.9960667E1,1.3835667E1,4E-1,2.7560663E1,1.3787315E-3,-8.745263E-3,2.4824744E-2,8.5E-1,6.5E-1,-4.6677273E-3,7.4933725E-3,2.9753536E-2,-2.6492642E-3,2.952515E-4,-3.954919E-3,-1.7518731E-3,-1.310864E-3,-5.0776564E-3,5.079056E-5,7.7153924E-3,-9.76633E-4,1.334841E-3,-2.2533187E-3,4.097376E-3,-4.49542E-3,-1.4853723E-3,-1.0872876E-4,6.354539E-3,4.092521E-3,1.0119969E-2,2.1953268E-2,2.1500706E-3],"split_indices":[0,0,0,3,1,2,3,1,0,0,0,0,2,3,2,1,3,1,2,3,3,0,3,0,0,0,0,2,0,0,0,0,0,0,0,0,0,0,0,0,0,0,0,0,0,0,0,0,0,0,0],"split_type":[0,0,0,0,0,0,0,0,0,0,0,0,0,0,0,0,0,0,0,0,0,0,0,0,0,0,0,0,0,0,0,0,0,0,0,0,0,0,0,0,0,0,0,0,0,0,0,0,0,0,0],"sum_hessian":[8.5E2,6.8E2,1.7E2,4.43E2,2.37E2,1.46E2,2.4E1,4.12E2,3.1E1,1.39E2,9.8E1,8E0,1.38E2,1E1,1.4E1,2.85E2,1.27E2,1.3E1,1.8E1,1.11E2,2.8E1,7.6E1,2.2E1,5E0,3E0,4E0,1.34E2,7E0,3E0,3E0,1.1E1,2.66E2,1.9E1,1.01E2,2.6E1,7E0,6E0,1.5E1,3E0,5.1E1,6E1,4E0,2.4E1,1.6E1,6E1,1.8E1,4E0,8.9E1,4.5E1,4E0,3E0],"tree_param":{"num_deleted":"0","num_feature":"7","num_nodes":"51","size_leaf_vector":"1"}},{"base_weights":[-1.5822025E-3,-2.5888847E-2,2.0177427E-1,-4.8070814E-2,1.7981257E-2,1.3775654E-1,3.039249E-1,-6.10342E-2,-2.851928E-2,4.264337E-2,-3.387565E-2,2.264693E-1,7.0454374E-2,3.8864347E-1,8.37531E-2,-5.5041637E-2,-8.970803E-2,-6.682267E-3,-5.392619E-2,2.5377382E-2,1.1246219E-1,3.4834056E-3,-8.24356E-2,2.8899342E-1,8.3204955E-2,2.714112E-2,1.6245283E-2,4.3536025E-1,1.7270193E-3,-7.6549174E-3,2.4096797E-1,-3.8941873E-3,-2.4937224E-3,-4.717771E-3,-1.9176077E-3,-3.821915E-3,1.5752003E-4,6.786381E-3,-3.0751748E-3,2.7042923E-3,-8.449492E-4,1.3692157E-2,4.4387565E-3,5.81937E-4,-4.5586894E-3,-2.0941105E-3,-7.7040843E-3,1.2806669E-3,1.7180124E-2,8.189919E-3,-7.014728E-4,5.9237718E-3,-7.804084E-4,2.6841989E-2,7.0606316E-3,9.119045E-4,2.0172793E-2],"categories":[],"categories_nodes":[],"categories_segments":[],"categories_sizes":[],"default_left":[0,0,0,0,0,0,0,0,0,0,0,0,0,0,0,0,0,0,0,0,0,0,0,0,0,0,0,0,0,0,0,0,0,0,0,0,0,0,0,0,0,0,0,0,0,0,0,0,0,0,0,0,0,0,0,0,0],"id":27,"left_children":[1,3,5,7,9,11,13,15,17,19,21,23,25,27,29,31,33,35,37,39,41,43,45,47,49,51,-1,53,-1,-1,55,-1,-1,-1,-1,-1,-1,-1,-1,-1,-1,-1,-1,-1,-1,-1,-1,-1,-1,-1,-1,-1,-1,-1,-1,-1,-1],"loss_changes":[4.305558E0,7.5795573E-1,5.663011E-1,1.2929523E-1,3.3651656E-1,3.363073E-1,6.202924E-1,4.8329473E-2,1.1504033E-1,2.1172336E-1,1.5449025E-1,1.9989121E-1,3.7692064E-1,3.9852643E-1,4.46494E-1,2.6685238E-2,8.792132E-3,7.774614E-2,1.4630589E-1,1.7568529E-1,1.0948196E-1,3.888724E-2,1.0104996E-1,2.3570907E-1,7.28261E-2,1.22887984E-1,0E0,5.8089066E-1,0E0,0E0,2.4597806E-1,0E0,0E0,0E0,0E0,0E0,0E0,0E0,0E0,0E0,0E0,0E0,0E0,0E0,0E0,0E0,0E0,0E0,0E0,0E0,0E0,0E0,0E0,0E0,0E0,0E0,0E0],"parents":[2147483647,0,0,1,1,2,2,3,3,4,4,5,5,6,6,7,7,8,8,9,9,10,10,11,11,12,12,13,13,14,14,15,15,16,16,17,17,18,18,19,19,20,20,21,21,22,22,23,23,24,24,25,25,27,27,30,30],"right_children":[2,4,6,8,10,12,14,16,18,20,22,24,26,28,30,32,34,36,38,40,42,44,46,48,50,52,-1,54,-1,-1,56,-1,-1,-1,-1,-1,-1,-1,-1,-1,-1,-1,-1,-1,-1,-1,-1,-1,-1,-1,-1,-1,-1,-1,-1,-1,-1],"split_conditions":[7.5E-1,3.9E-1,1.12E0,2.8E-1,2.3596513E2,6.7E-1,2.658151E2,3.9E-1,1.8444403E2,2.6523169E1,2.1148165E1,1.993899E2,1.27E0,2.1E0,6.3E-1,1.5E-1,3.3387234E2,2E-1,2E-1,2.2529413E1,2.6585669E1,7E-1,5.6E-1,3.1E-1,4.6E-1,1.3578046E2,1.6245283E-2,2.46065E1,1.7270193E-3,-7.6549174E-3,1.7600248E1,-3.8941873E-3,-2.4937224E-3,-4.717771E-3,-1.9176077E-3,-3.821915E-3,1.5752003E-4,6.786381E-3,-3.0751748E-3,2.7042923E-3,-8.449492E-4,1.3692157E-2,4.4387565E-3,5.81937E-4,-4.5586894E-3,-2.0941105E-3,-7.7040843E-3,1.2806669E-3,1.7180124E-2,8.189919E-3,-7.014728E-4,5.9237718E-3,-7.804084E-4,2.6841989E-2,7.0606316E-3,9.119045E-4,2.0172793E-2],"split_indices":[0,0,0,0,6,1,6,2,6,3,3,6,1,1,2,0,6,2,2,3,3,0,1,2,2,6,0,3,0,0,3,0,0,0,0,0,0,0,0,0,0,0,0,0,0,0,0,0,0,0,0,0,0,0,0,0,0],"split_type":[0,0,0,0,0,0,0,0,0,0,0,0,0,0,0,0,0,0,0,0,0,0,0,0,0,0,0,0,0,0,0,0,0,0,0,0,0,0,0,0,0,0,0,0,0,0,0,0,0,0,0,0,0,0,0,0,0],"sum_hessian":[8.69E2,7.77E2,9.2E1,5.16E2,2.61E2,5.8E1,3.4E1,3.09E2,2.07E2,1.77E2,8.4E1,2.4E1,3.4E1,2.4E1,1E1,2.58E2,5.1E1,1.12E2,9.5E1,1.43E2,3.4E1,4.8E1,3.6E1,1.6E1,8E0,3E1,4E0,2.1E1,3E0,4E0,6E0,4.5E1,2.13E2,4.6E1,5E0,1.3E1,9.9E1,3E0,9.2E1,8.5E1,5.8E1,3E0,3.1E1,4.5E1,3E0,2.4E1,1.2E1,3E0,1.3E1,4E0,4E0,9E0,2.1E1,1.5E1,6E0,3E0,3E0],"tree_param":{"num_deleted":"0","num_feature":"7","num_nodes":"57","size_leaf_vector":"1"}},{"base_weights":[1.922037E-3,-1.7637141E-2,2.11688E-1,-4.4665128E-2,2.8972296E-2,4.0612164E-1,1.499852E-1,-3.7567988E-2,-7.9027675E-2,7.6470347E-3,6.052659E-2,-1.3863817E-3,5.010699E-1,1.0786283E-1,2.1772513E-2,-5.239037E-2,-1.7310629E-2,-7.2174065E-2,-1.0014791E-1,2.5914125E-2,-2.0261537E-2,1.6827264E-1,2.5948882E-2,3.5130838E-1,3.9382327E-2,5.7211857E-2,2.1508607E-1,9.6590066E-4,-2.7810102E-3,-1.1106179E-3,3.805586E-3,-3.910753E-3,1.13923976E-4,-3.58038E-3,-6.0365913E-3,-2.179777E-3,1.5283596E-3,-3.7599185E-3,-4.2729807E-4,-5.7323687E-3,1.2532194E-2,8.182892E-3,1.2000602E-5,2.2026567E-2,4.2517693E-3,6.130462E-3,-2.7156633E-3,1.4554502E-2,-5.1703217E-4],"categories":[],"categories_nodes":[],"categories_segments":[],"categories_sizes":[],"default_left":[0,0,0,0,0,0,0,0,0,0,0,0,0,0,0,0,0,0,0,0,0,0,0,0,0,0,0,0,0,0,0,0,0,0,0,0,0,0,0,0,0,0,0,0,0,0,0,0,0],"id":28,"left_children":[1,3,5,7,9,11,13,15,17,19,21,-1,23,25,-1,27,29,31,33,35,37,39,41,43,-1,45,47,-1,-1,-1,-1,-1,-1,-1,-1,-1,-1,-1,-1,-1,-1,-1,-1,-1,-1,-1,-1,-1,-1],"loss_changes":[3.51167E0,9.8768556E-1,8.1487584E-1,1.17993474E-1,1.9333339E-1,7.141783E-1,6.3842547E-1,1.2310147E-1,4.9309134E-3,8.872191E-2,4.2780444E-1,0E0,3.2414722E-1,2.646736E-1,0E0,5.619669E-2,8.228648E-2,3.0312568E-2,1.9291788E-3,3.5293065E-2,4.37669E-2,6.812609E-1,3.1505108E-1,2.2387362E-1,0E0,2.6922357E-1,2.771433E-1,0E0,0E0,0E0,0E0,0E0,0E0,0E0,0E0,0E0,0E0,0E0,0E0,0E0,0E0,0E0,0E0,0E0,0E0,0E0,0E0,0E0,0E0],"parents":[2147483647,0,0,1,1,2,2,3,3,4,4,5,5,6,6,7,7,8,8,9,9,10,10,12,12,13,13,15,15,16,16,17,17,18,18,19,19,20,20,21,21,22,22,23,23,25,25,26,26],"right_children":[2,4,6,8,10,12,14,16,18,20,22,-1,24,26,-1,28,30,32,34,36,38,40,42,44,-1,46,48,-1,-1,-1,-1,-1,-1,-1,-1,-1,-1,-1,-1,-1,-1,-1,-1,-1,-1,-1,-1,-1,-1],"split_conditions":[8.5E-1,3.9E-1,7E-1,2.2751316E1,5.5E-1,1.0182337E1,2.12E0,2.8E-1,3.9E-1,4.2E-1,4.4E-1,-1.3863817E-3,8.2E-1,1.09E0,2.1772513E-2,7.92E0,2.1862406E1,4.6E-1,1E-1,7.386582E0,3.9E-1,2.2E-1,1.0239453E1,5E-1,3.9382327E-2,1.09E0,1E-1,9.6590066E-4,-2.7810102E-3,-1.1106179E-3,3.805586E-3,-3.910753E-3,1.13923976E-4,-3.58038E-3,-6.0365913E-3,-2.179777E-3,1.5283596E-3,-3.7599185E-3,-4.2729807E-4,-5.7323687E-3,1.2532194E-2,8.182892E-3,1.2000602E-5,2.2026567E-2,4.2517693E-3,6.130462E-3,-2.7156633E-3,1.4554502E-2,-5.1703217E-4],"split_indices":[0,0,1,5,0,5,0,0,1,1,1,0,2,2,0,5,5,2,4,5,2,2,5,2,0,1,4,0,0,0,0,0,0,0,0,0,0,0,0,0,0,0,0,0,0,0,0,0,0],"split_type":[0,0,0,0,0,0,0,0,0,0,0,0,0,0,0,0,0,0,0,0,0,0,0,0,0,0,0,0,0,0,0,0,0,0,0,0,0,0,0,0,0,0,0,0,0,0,0,0,0],"sum_hessian":[8.54E2,7.82E2,7.2E1,4.95E2,2.87E2,1.6E1,5.6E1,4.12E2,8.3E1,1.72E2,1.15E2,3E0,1.3E1,5E1,6E0,2.37E2,1.75E2,6.6E1,1.7E1,1.04E2,6.8E1,2.7E1,8.8E1,1E1,3E0,3.5E1,1.5E1,1E1,2.27E2,1.67E2,8E0,6.1E1,5E0,9E0,8E0,6E0,9.8E1,1.1E1,5.7E1,6E0,2.1E1,1.3E1,7.5E1,7E0,3E0,2.2E1,1.3E1,1.1E1,4E0],"tree_param":{"num_deleted":"0","num_feature":"7","num_nodes":"49","size_leaf_vector":"1"}},{"base_weights":[6.584891E-4,-1.8139813E-2,2.130699E-1,-4.1622445E-2,2.1914706E-2,3.0226284E-1,7.6546684E-2,-3.3440083E-2,-6.927689E-2,4.4559237E-2,-2.2234835E-2,2.2031625E-1,4.3507895E-1,1.8859586E-1,-2.4053704E-3,-3.629899E-2,3.9880708E-2,-7.669446E-2,-2.2877978E-2,1.4778917E-2,7.880784E-2,-9.240877E-2,-5.7038623E-3,4.6472782E-1,5.8713824E-2,2.68048E-2,1.1629027E-3,4.756447E-2,1.8826347E-2,5.385201E-2,-7.972248E-3,-2.6816723E-3,-1.0436357E-3,-6.620768E-4,7.4386755E-3,-3.3040773E-3,-6.744689E-3,3.330448E-3,-2.7768095E-3,3.7918004E-4,5.053709E-3,7.057648E-3,2.563731E-3,-1.7258915E-3,-9.335964E-3,7.336124E-4,-3.4801706E-3,2.9474914E-3,3.0476293E-2,4.801774E-3,-4.796042E-3,-2.7556694E-3,8.201034E-3,9.767153E-3,-1.1139361E-3],"categories":[],"categories_nodes":[],"categories_segments":[],"categories_sizes":[],"default_left":[0,0,0,0,0,0,0,0,0,0,0,0,0,0,0,0,0,0,0,0,0,0,0,0,0,0,0,0,0,0,0,0,0,0,0,0,0,0,0,0,0,0,0,0,0,0,0,0,0,0,0,0,0,0,0],"id":29,"left_children":[1,3,5,7,9,11,13,15,17,19,21,23,25,27,29,31,33,35,37,39,41,43,45,47,49,-1,-1,51,-1,53,-1,-1,-1,-1,-1,-1,-1,-1,-1,-1,-1,-1,-1,-1,-1,-1,-1,-1,-1,-1,-1,-1,-1,-1,-1],"loss_changes":[3.4378226E0,7.449153E-1,8.292465E-1,1.1059648E-1,2.9391623E-1,3.612659E-1,2.570025E-1,8.256948E-2,3.7136316E-2,1.9670254E-1,1.1547725E-1,1.0786439E0,6.115453E-1,3.001409E-1,1.6760987E-1,9.862304E-2,8.873944E-2,5.0999403E-2,5.338142E-2,6.443027E-2,1.4725304E-1,9.728959E-2,1.0778724E-1,6.103828E-1,1.1309379E-1,0E0,0E0,1.0469952E-1,0E0,1.5515743E-1,0E0,0E0,0E0,0E0,0E0,0E0,0E0,0E0,0E0,0E0,0E0,0E0,0E0,0E0,0E0,0E0,0E0,0E0,0E0,0E0,0E0,0E0,0E0,0E0,0E0],"parents":[2147483647,0,0,1,1,2,2,3,3,4,4,5,5,6,6,7,7,8,8,9,9,10,10,11,11,12,12,13,13,14,14,15,15,16,16,17,17,18,18,19,19,20,20,21,21,22,22,23,23,24,24,27,27,29,29],"right_children":[2,4,6,8,10,12,14,16,18,20,22,24,26,28,30,32,34,36,38,40,42,44,46,48,50,-1,-1,52,-1,54,-1,-1,-1,-1,-1,-1,-1,-1,-1,-1,-1,-1,-1,-1,-1,-1,-1,-1,-1,-1,-1,-1,-1,-1,-1],"split_conditions":[8.5E-1,3.9E-1,2.4814835E1,2.1313093E1,1.6327497E1,1.2E0,8E-1,2.0523157E1,2.2877335E1,5.5E-1,3E-1,7E-1,2.290743E1,1.4707222E1,1.935314E1,2.2E-1,1.982525E1,3.7E-1,2.290743E1,1.5696165E1,2.0598167E1,2.090233E1,6.7E-1,1.0239453E1,1.42E0,2.68048E-2,1.1629027E-3,6.5E-1,1.8826347E-2,6.7E-1,-7.972248E-3,-2.6816723E-3,-1.0436357E-3,-6.620768E-4,7.4386755E-3,-3.3040773E-3,-6.744689E-3,3.330448E-3,-2.7768095E-3,3.7918004E-4,5.053709E-3,7.057648E-3,2.563731E-3,-1.7258915E-3,-9.335964E-3,7.336124E-4,-3.4801706E-3,2.9474914E-3,3.0476293E-2,4.801774E-3,-4.796042E-3,-2.7556694E-3,8.201034E-3,9.767153E-3,-1.1139361E-3],"split_indices":[0,0,3,5,5,1,1,5,3,0,2,1,5,5,5,0,3,1,5,5,3,3,1,5,0,0,0,2,0,2,0,0,0,0,0,0,0,0,0,0,0,0,0,0,0,0,0,0,0,0,0,0,0,0,0],"split_type":[0,0,0,0,0,0,0,0,0,0,0,0,0,0,0,0,0,0,0,0,0,0,0,0,0,0,0,0,0,0,0,0,0,0,0,0,0,0,0,0,0,0,0,0,0,0,0,0,0,0,0,0,0,0,0],"sum_hessian":[8.59E2,7.9E2,6.9E1,4.98E2,2.92E2,4.1E1,2.8E1,3.86E2,1.12E2,1.93E2,9.9E1,2.7E1,1.4E1,1.1E1,1.7E1,3.72E2,1.4E1,9.6E1,1.6E1,1.04E2,8.9E1,1.8E1,8.1E1,1E1,1.7E1,1.1E1,3E0,7E0,4E0,1.3E1,4E0,1.74E2,1.98E2,1E1,4E0,8.3E1,1.3E1,4E0,1.2E1,9.7E1,7E0,2.6E1,6.3E1,1.2E1,6E0,6.2E1,1.9E1,3E0,7E0,1.4E1,3E0,4E0,3E0,4E0,9E0],"tree_param":{"num_deleted":"0","num_feature":"7","num_nodes":"55","size_leaf_vector":"1"}},{"base_weights":[6.3907984E-4,-2.727031E-2,1.1882982E-1,-5.2006483E-2,-8.402642E-3,8.1814155E-2,2.983422E-1,1.2273606E-2,-5.585678E-2,-3.9469334E-3,-4.436367E-2,2.3336998E-1,6.4325295E-2,3.349334E-3,3.9651367E-1,3.512984E-2,-1.4485947E-2,-4.7759578E-2,-7.893954E-2,-7.171578E-3,5.0746895E-2,-1.6126676E-2,-9.788007E-2,3.9011896E-1,2.088973E-2,9.315413E-2,-3.9902557E-2,-1.0865034E-2,8.959974E-3,2.610231E-2,1.2726757E-1,-7.180955E-4,2.9196148E-3,-2.153348E-3,1.600353E-3,-2.641859E-3,-3.5281727E-4,-2.938288E-3,-4.902066E-3,-2.1078554E-4,-5.185122E-3,5.6063617E-3,-4.833381E-4,-2.6217047E-3,5.495636E-4,-2.2074934E-3,-5.6702355E-3,8.945793E-4,3.0493854E-2,2.9204343E-3,-1.0925829E-3,5.0985464E-3,-4.6497844E-3,-3.4056518E-3,7.319428E-3,1.6274244E-2,-2.8379888E-3],"categories":[],"categories_nodes":[],"categories_segments":[],"categories_sizes":[],"default_left":[0,0,0,0,0,0,0,0,0,0,0,0,0,0,0,0,0,0,0,0,0,0,0,0,0,0,0,0,0,0,0,0,0,0,0,0,0,0,0,0,0,0,0,0,0,0,0,0,0,0,0,0,0,0,0,0,0],"id":30,"left_children":[1,3,5,7,9,11,13,15,17,19,21,23,25,27,29,31,33,35,37,39,41,43,45,47,49,51,53,-1,-1,-1,55,-1,-1,-1,-1,-1,-1,-1,-1,-1,-1,-1,-1,-1,-1,-1,-1,-1,-1,-1,-1,-1,-1,-1,-1,-1,-1],"loss_changes":[2.8664527E0,3.2766283E-1,1.0786228E0,7.5924754E-2,6.3917644E-2,3.5341316E-1,8.095486E-1,1.15180975E-2,4.987192E-2,6.332736E-2,6.491178E-2,4.5813537E-1,3.8231784E-1,3.4935084E-1,6.4334226E-1,1.2351621E-2,1.3337802E-2,4.4062138E-2,2.2369444E-2,9.6005164E-2,7.524812E-2,3.0113798E-2,7.5053126E-3,6.4348817E-1,1.2501612E-2,1.7196602E-1,1.5712108E-1,0E0,0E0,0E0,3.1029367E-1,0E0,0E0,0E0,0E0,0E0,0E0,0E0,0E0,0E0,0E0,0E0,0E0,0E0,0E0,0E0,0E0,0E0,0E0,0E0,0E0,0E0,0E0,0E0,0E0,0E0,0E0],"parents":[2147483647,0,0,1,1,2,2,3,3,4,4,5,5,6,6,7,7,8,8,9,9,10,10,11,11,12,12,13,13,14,14,15,15,16,16,17,17,18,18,19,19,20,20,21,21,22,22,23,23,24,24,25,25,26,26,30,30],"right_children":[2,4,6,8,10,12,14,16,18,20,22,24,26,28,30,32,34,36,38,40,42,44,46,48,50,52,54,-1,-1,-1,56,-1,-1,-1,-1,-1,-1,-1,-1,-1,-1,-1,-1,-1,-1,-1,-1,-1,-1,-1,-1,-1,-1,-1,-1,-1,-1],"split_conditions":[6E-1,2.8E-1,1.2E0,8.587338E0,2.3469128E1,3.5E-1,1.9625248E1,7.42159E0,3E-1,5.5E-1,1.8631498E1,6.3E-1,1.8272438E1,1.92E0,2.4814835E1,6.6818557E0,8.161764E0,2.5E-1,1.803237E1,7.2E-1,5.6E-1,1.4121083E1,2.5762016E1,3E-1,1.52947035E1,1.4000001E0,2.6758923E1,-1.0865034E-2,8.959974E-3,2.610231E-2,1.04E0,-7.180955E-4,2.9196148E-3,-2.153348E-3,1.600353E-3,-2.641859E-3,-3.5281727E-4,-2.938288E-3,-4.902066E-3,-2.1078554E-4,-5.185122E-3,5.6063617E-3,-4.833381E-4,-2.6217047E-3,5.495636E-4,-2.2074934E-3,-5.6702355E-3,8.945793E-4,3.0493854E-2,2.9204343E-3,-1.0925829E-3,5.0985464E-3,-4.6497844E-3,-3.4056518E-3,7.319428E-3,1.6274244E-2,-2.8379888E-3],"split_indices":[0,0,0,5,5,1,3,5,1,0,3,0,5,0,3,5,5,1,5,1,0,3,5,1,5,4,5,0,0,0,1,0,0,0,0,0,0,0,0,0,0,0,0,0,0,0,0,0,0,0,0,0,0,0,0,0,0],"split_type":[0,0,0,0,0,0,0,0,0,0,0,0,0,0,0,0,0,0,0,0,0,0,0,0,0,0,0,0,0,0,0,0,0,0,0,0,0,0,0,0,0,0,0,0,0,0,0,0,0,0,0,0,0,0,0,0,0],"sum_hessian":[8.67E2,7.02E2,1.65E2,3.03E2,3.99E2,1.38E2,2.7E1,1.7E1,2.86E2,3.56E2,4.3E1,1.3E1,1.25E2,7E0,2E1,9E0,8E0,2.14E2,7.2E1,3.37E2,1.9E1,2.9E1,1.4E1,7E0,6E0,9.8E1,2.7E1,3E0,4E0,1.3E1,7E0,3E0,6E0,5E0,3E0,1.9E2,2.4E1,3.7E1,3.5E1,3.28E2,9E0,9E0,1E1,1.2E1,1.7E1,4E0,1E1,3E0,4E0,3E0,3E0,9.4E1,4E0,2.4E1,3E0,3E0,4E0],"tree_param":{"num_deleted":"0","num_feature":"7","num_nodes":"57","size_leaf_vector":"1"}},{"base_weights":[2.3907498E-3,-1.7486557E-2,2.1805409E-1,-3.3823833E-2,3.96547E-2,1.4651906E-1,3.4448338E-1,-4.53695E-2,-2.0330155E-2,1.01642154E-1,1.2773924E-2,2.6859877E-1,9.001294E-2,2.2311883E-1,4.6748212E-1,-6.885338E-2,-4.072816E-2,-1.5028564E-2,-7.141496E-2,1.3990015E-1,-8.068301E-2,-1.0420297E-2,6.676108E-2,1.3932183E-1,2.1964692E-2,4.402116E-2,2.676913E-1,3.660061E-1,-2.610655E-3,2.9571742E-2,3.5858997E-3,-2.4658032E-3,-3.824856E-3,-2.3251777E-3,-1.3913221E-3,4.4052876E-3,-8.4770576E-4,1.7269887E-3,-5.166625E-3,2.7783175E-3,1.6133513E-2,1.6661391E-3,-6.715152E-3,-1.1250105E-3,5.735068E-3,6.839752E-3,-9.327084E-4,-1.4499649E-4,1.0034415E-2,-2.2603285E-3,3.7233324E-3,2.3345722E-2,7.726811E-5,2.4056833E-2,3.6513053E-3],"categories":[],"categories_nodes":[],"categories_segments":[],"categories_sizes":[],"default_left":[0,0,0,0,0,0,0,0,0,0,0,0,0,0,0,0,0,0,0,0,0,0,0,0,0,0,0,0,0,0,0,0,0,0,0,0,0,0,0,0,0,0,0,0,0,0,0,0,0,0,0,0,0,0,0],"id":31,"left_children":[1,3,5,7,9,11,13,15,17,19,21,23,25,27,29,31,33,35,37,39,41,43,45,47,-1,49,51,53,-1,-1,-1,-1,-1,-1,-1,-1,-1,-1,-1,-1,-1,-1,-1,-1,-1,-1,-1,-1,-1,-1,-1,-1,-1,-1,-1],"loss_changes":[3.7590554E0,7.5096786E-1,6.187916E-1,9.64486E-2,2.9696408E-1,3.1383693E-1,2.8381586E-1,3.3818603E-2,7.7467665E-2,3.8795888E-1,1.584716E-1,2.6980078E-1,2.7422693E-1,6.0923177E-1,5.462558E-1,4.2917132E-3,1.9793004E-2,5.39216E-2,9.487803E-2,6.756867E-1,6.560528E-2,1.3710064E-1,2.2986658E-1,8.785845E-2,0E0,8.214724E-2,3.7043548E-1,3.0217385E-1,0E0,0E0,0E0,0E0,0E0,0E0,0E0,0E0,0E0,0E0,0E0,0E0,0E0,0E0,0E0,0E0,0E0,0E0,0E0,0E0,0E0,0E0,0E0,0E0,0E0,0E0,0E0],"parents":[2147483647,0,0,1,1,2,2,3,3,4,4,5,5,6,6,7,7,8,8,9,9,10,10,11,11,12,12,13,13,14,14,15,15,16,16,17,17,18,18,19,19,20,20,21,21,22,22,23,23,25,25,26,26,27,27],"right_children":[2,4,6,8,10,12,14,16,18,20,22,24,26,28,30,32,34,36,38,40,42,44,46,48,-1,50,52,54,-1,-1,-1,-1,-1,-1,-1,-1,-1,-1,-1,-1,-1,-1,-1,-1,-1,-1,-1,-1,-1,-1,-1,-1,-1,-1,-1],"split_conditions":[8.5E-1,4.6E-1,1.27E0,3E-1,4.2E-1,7E-1,1.1908491E2,1.5E-1,5.5E-1,6.5E-1,7E-1,1.02E0,1.27E0,1.01738525E2,2.8766342E2,2.404035E2,1.9833584E1,1.7E-1,9.9462265E1,6E-1,2.1212751E1,9.3E-1,1.993899E2,5.6E-1,2.1964692E-2,9.3E-1,9E-1,1E-1,-2.610655E-3,2.9571742E-2,3.5858997E-3,-2.4658032E-3,-3.824856E-3,-2.3251777E-3,-1.3913221E-3,4.4052876E-3,-8.4770576E-4,1.7269887E-3,-5.166625E-3,2.7783175E-3,1.6133513E-2,1.6661391E-3,-6.715152E-3,-1.1250105E-3,5.735068E-3,6.839752E-3,-9.327084E-4,-1.4499649E-4,1.0034415E-2,-2.2603285E-3,3.7233324E-3,2.3345722E-2,7.726811E-5,2.4056833E-2,3.6513053E-3],"split_indices":[0,0,0,0,1,1,6,0,1,0,0,0,1,6,6,6,3,1,6,0,3,1,6,1,0,0,0,4,0,0,0,0,0,0,0,0,0,0,0,0,0,0,0,0,0,0,0,0,0,0,0,0,0,0,0],"split_type":[0,0,0,0,0,0,0,0,0,0,0,0,0,0,0,0,0,0,0,0,0,0,0,0,0,0,0,0,0,0,0,0,0,0,0,0,0,0,0,0,0,0,0,0,0,0,0,0,0,0,0,0,0,0,0],"sum_hessian":[8.75E2,8.02E2,7.3E1,6.24E2,1.78E2,4.8E1,2.5E1,3.35E2,2.89E2,5.3E1,1.25E2,1.4E1,3.4E1,1.4E1,1.1E1,5.3E1,2.82E2,2.63E2,2.6E1,4.4E1,9E0,8.8E1,3.7E1,9E0,5E0,2.8E1,6E0,9E0,5E0,8E0,3E0,1.7E1,3.6E1,1.93E2,8.9E1,4E0,2.59E2,6E0,2E1,3.1E1,1.3E1,3E0,6E0,8.1E1,7E0,2E1,1.7E1,3E0,6E0,7E0,2.1E1,3E0,3E0,6E0,3E0],"tree_param":{"num_deleted":"0","num_feature":"7","num_nodes":"55","size_leaf_vector":"1"}},{"base_weights":[3.369734E-3,-8.903066E-3,2.7102187E-1,-2.5264842E-2,6.9764376E-2,6.5508716E-2,3.6335453E-1,-4.577626E-2,-9.712179E-3,-6.2475137E-2,7.70302E-2,-4.1866697E-2,1.5878504E-2,3.082068E-2,2.5661612E-1,-4.207097E-2,-8.263617E-2,4.868189E-3,-2.9800734E-2,9.6077146E-4,-7.448478E-3,1.9369995E-2,6.2226772E-2,6.9018505E-3,-9.240434E-3,3.148286E-1,-2.7470477E-3,-3.0580268E-3,-1.8683829E-3,-5.003921E-3,-2.2360364E-3,7.093788E-7,9.223194E-3,-1.2498998E-4,-2.2894873E-3,4.6048537E-3,4.3286747E-4,9.557761E-3,